{"learner":{"attributes":{"scikit_learn":"{\"_estimator_type\": \"regressor\"}"},"feature_names":["YEAR","JAN","FEB","APR"],"feature_types":["int","float","float","float"],"gradient_booster":{"model":{"gbtree_model_param":{"num_parallel_tree":"1","num_trees":"100"},"iteration_indptr":[0,1,2,3,4,5,6,7,8,9,10,11,12,13,14,15,16,17,18,19,20,21,22,23,24,25,26,27,28,29,30,31,32,33,34,35,36,37,38,39,40,41,42,43,44,45,46,47,48,49,50,51,52,53,54,55,56,57,58,59,60,61,62,63,64,65,66,67,68,69,70,71,72,73,74,75,76,77,78,79,80,81,82,83,84,85,86,87,88,89,90,91,92,93,94,95,96,97,98,99,100],"tree_info":[0,0,0,0,0,0,0,0,0,0,0,0,0,0,0,0,0,0,0,0,0,0,0,0,0,0,0,0,0,0,0,0,0,0,0,0,0,0,0,0,0,0,0,0,0,0,0,0,0,0,0,0,0,0,0,0,0,0,0,0,0,0,0,0,0,0,0,0,0,0,0,0,0,0,0,0,0,0,0,0,0,0,0,0,0,0,0,0,0,0,0,0,0,0,0,0,0,0,0,0],"trees":[{"base_weights":[-1.9663388E-7,-3.1500018E-1,3.149998E-1,-3.809555E-1,2.0462884E-2,1.4998542E-1,5.278768E-1,-4.2118976E-1,-2.3293565E-1,-2.2911454E-2,8.029938E-2,2.8319422E-2,2.6165238E-1,3.9878707E-2,6.877992E-2,-4.3062177E-2,-6.9114687E-3,-3.5058327E-2,-1.15625106E-1,-7.41148E-3,1.12946376E-1,-7.852427E-2,8.959369E-2,8.7416075E-2,3.170641E-1,-1.4019108E-1,1.5885354E-3,2.1327972E-2,1.7632818E-2,1.1180878E-2,-1.2617207E-1,3.11807E-3,1.0029936E-2,7.846832E-4,1.3784664E-2,3.3259353E-1,8.088494E-3,-3.4114837E-3,-1.5458337E-2,5.8851246E-4,2.451388E-3,-1.411438E-3,3.0885697E-3,-1.4215278E-2,-3.911495E-3,1.814167E-2,4.0314198E-2],"categories":[],"categories_nodes":[],"categories_segments":[],"categories_sizes":[],"default_left":[0,0,0,0,0,0,0,0,0,0,0,0,0,0,0,0,0,0,0,0,0,0,0,0,0,0,0,0,0,0,0,0,0,0,0,0,0,0,0,0,0,0,0,0,0,0,0],"id":0,"left_children":[1,3,5,7,9,11,13,15,17,-1,19,21,23,-1,-1,-1,-1,-1,25,-1,27,29,31,33,35,37,-1,39,-1,41,43,-1,-1,-1,-1,45,-1,-1,-1,-1,-1,-1,-1,-1,-1,-1,-1],"loss_changes":[9.724049E0,1.0919485E0,1.642087E0,1.460638E-1,1.5280229E-1,3.865863E-1,1.5924501E-1,7.3182106E-2,1.1127812E-1,0E0,4.870027E-2,1.0523683E-1,1.1710465E-1,0E0,0E0,0E0,0E0,0E0,2.4841756E-2,0E0,3.688786E-2,2.7056228E-2,3.1260923E-3,1.8981945E-2,1.3443112E-2,3.8864836E-3,0E0,5.2530784E-5,0E0,1.9312479E-3,4.6417117E-6,0E0,0E0,0E0,0E0,3.3516288E-2,0E0,0E0,0E0,0E0,0E0,0E0,0E0,0E0,0E0,0E0,0E0],"parents":[2147483647,0,0,1,1,2,2,3,3,4,4,5,5,6,6,7,7,8,8,10,10,11,11,12,12,18,18,20,20,21,21,22,22,23,23,24,24,25,25,27,27,29,29,30,30,35,35],"right_children":[2,4,6,8,10,12,14,16,18,-1,20,22,24,-1,-1,-1,-1,-1,26,-1,28,30,32,34,36,38,-1,40,-1,42,44,-1,-1,-1,-1,46,-1,-1,-1,-1,-1,-1,-1,-1,-1,-1,-1],"split_conditions":[1.964E3,2.784E1,1.998E3,1.942E3,3.31E1,2.54E1,2.832E1,2.599E1,2.655E1,-2.2911454E-2,2.475E1,2.692E1,3.342E1,3.9878707E-2,6.877992E-2,-4.3062177E-2,-6.9114687E-3,-3.5058327E-2,2.735E1,-7.41148E-3,1.953E3,2.662E1,1.977E3,2.585E1,3.53E1,1.944E3,1.5885354E-3,1.903E3,1.7632818E-2,1.969E3,1.979E3,3.11807E-3,1.0029936E-2,7.846832E-4,1.3784664E-2,2.568E1,8.088494E-3,-3.4114837E-3,-1.5458337E-2,5.8851246E-4,2.451388E-3,-1.411438E-3,3.0885697E-3,-1.4215278E-2,-3.911495E-3,1.814167E-2,4.0314198E-2],"split_indices":[0,2,0,0,3,1,2,1,2,0,1,2,3,0,0,0,0,0,2,0,0,2,0,1,3,0,0,0,0,0,0,0,0,0,0,1,0,0,0,0,0,0,0,0,0,0,0],"split_type":[0,0,0,0,0,0,0,0,0,0,0,0,0,0,0,0,0,0,0,0,0,0,0,0,0,0,0,0,0,0,0,0,0,0,0,0,0,0,0,0,0,0,0,0,0,0,0],"sum_hessian":[9.6E1,4.8E1,4.8E1,4E1,8E0,2.8E1,2E1,3E1,1E1,1E0,7E0,1.4E1,1.4E1,1.3E1,7E0,2.9E1,1E0,4E0,6E0,1E0,6E0,5E0,9E0,4E0,1E1,5E0,1E0,3E0,3E0,2E0,3E0,2E0,7E0,2E0,2E0,9E0,1E0,1E0,4E0,1E0,2E0,1E0,1E0,2E0,1E0,4E0,5E0],"tree_param":{"num_deleted":"0","num_feature":"4","num_nodes":"47","size_leaf_vector":"1"}},{"base_weights":[7.680716E-4,-2.8578502E-1,2.8730547E-1,-3.4535518E-1,1.7344156E-2,1.3767013E-1,4.8026356E-1,-3.806828E-1,-2.1439968E-1,-2.17659E-2,7.3926926E-2,2.526703E-2,2.4089521E-1,3.6175676E-2,6.276176E-2,-3.88995E-2,-6.565857E-3,-3.2253608E-2,-1.0653087E-1,-7.040882E-3,1.0460472E-1,-7.3413216E-2,8.1948474E-2,8.1588745E-2,2.9140767E-1,-1.2931633E-1,1.5090943E-3,1.9955158E-2,1.631031E-2,1.0622025E-2,-1.1808634E-2,2.910169E-3,9.1522455E-2,7.324219E-4,1.2865703E-2,3.0518037E-1,7.6840403E-3,-3.2408715E-3,-1.4221611E-2,5.590439E-4,2.287992E-3,-1.3408661E-3,2.9341697E-3,9.720557E-3,2.5870323E-3,1.6690406E-1,3.6954723E-2,4.6814918E-3,1.8522263E-2],"categories":[],"categories_nodes":[],"categories_segments":[],"categories_sizes":[],"default_left":[0,0,0,0,0,0,0,0,0,0,0,0,0,0,0,0,0,0,0,0,0,0,0,0,0,0,0,0,0,0,0,0,0,0,0,0,0,0,0,0,0,0,0,0,0,0,0,0,0],"id":1,"left_children":[1,3,5,7,9,11,13,15,17,-1,19,21,23,-1,-1,-1,-1,-1,25,-1,27,29,31,33,35,37,-1,39,-1,41,-1,-1,43,-1,-1,45,-1,-1,-1,-1,-1,-1,-1,-1,-1,47,-1,-1,-1],"loss_changes":[8.0466E0,8.908057E-1,1.3486767E0,1.0806227E-1,1.3576503E-1,3.3039504E-1,1.3966703E-1,5.5633545E-2,9.394997E-2,0E0,4.2788316E-2,8.991618E-2,9.6928835E-2,0E0,0E0,0E0,0E0,0E0,2.1349974E-2,0E0,3.1408288E-2,2.3779016E-2,2.3960844E-3,1.6535208E-2,9.056628E-3,2.8914735E-3,0E0,4.0144776E-5,0E0,1.7429728E-3,0E0,0E0,4.7013164E-4,0E0,0E0,2.7325153E-2,0E0,0E0,0E0,0E0,0E0,0E0,0E0,0E0,0E0,2.3281127E-3,0E0,0E0,0E0],"parents":[2147483647,0,0,1,1,2,2,3,3,4,4,5,5,6,6,7,7,8,8,10,10,11,11,12,12,18,18,20,20,21,21,22,22,23,23,24,24,25,25,27,27,29,29,32,32,35,35,45,45],"right_children":[2,4,6,8,10,12,14,16,18,-1,20,22,24,-1,-1,-1,-1,-1,26,-1,28,30,32,34,36,38,-1,40,-1,42,-1,-1,44,-1,-1,46,-1,-1,-1,-1,-1,-1,-1,-1,-1,48,-1,-1,-1],"split_conditions":[1.964E3,2.784E1,1.998E3,1.942E3,3.31E1,2.54E1,2.832E1,2.599E1,2.655E1,-2.17659E-2,2.475E1,2.692E1,3.342E1,3.6175676E-2,6.276176E-2,-3.88995E-2,-6.565857E-3,-3.2253608E-2,2.735E1,-7.040882E-3,1.953E3,2.662E1,1.977E3,2.585E1,3.53E1,1.944E3,1.5090943E-3,1.903E3,1.631031E-2,1.969E3,-1.1808634E-2,2.910169E-3,1.996E3,7.324219E-4,1.2865703E-2,2.568E1,7.6840403E-3,-3.2408715E-3,-1.4221611E-2,5.590439E-4,2.287992E-3,-1.3408661E-3,2.9341697E-3,9.720557E-3,2.5870323E-3,1.972E3,3.6954723E-2,4.6814918E-3,1.8522263E-2],"split_indices":[0,2,0,0,3,1,2,1,2,0,1,2,3,0,0,0,0,0,2,0,0,2,0,1,3,0,0,0,0,0,0,0,0,0,0,1,0,0,0,0,0,0,0,0,0,0,0,0,0],"split_type":[0,0,0,0,0,0,0,0,0,0,0,0,0,0,0,0,0,0,0,0,0,0,0,0,0,0,0,0,0,0,0,0,0,0,0,0,0,0,0,0,0,0,0,0,0,0,0,0,0],"sum_hessian":[9.6E1,4.8E1,4.8E1,4E1,8E0,2.8E1,2E1,3E1,1E1,1E0,7E0,1.4E1,1.4E1,1.3E1,7E0,2.9E1,1E0,4E0,6E0,1E0,6E0,5E0,9E0,4E0,1E1,5E0,1E0,3E0,3E0,2E0,3E0,2E0,7E0,2E0,2E0,9E0,1E0,1E0,4E0,1E0,2E0,1E0,1E0,6E0,1E0,4E0,5E0,1E0,3E0],"tree_param":{"num_deleted":"0","num_feature":"4","num_nodes":"49","size_leaf_vector":"1"}},{"base_weights":[1.5376572E-3,-2.593147E-1,2.623586E-1,-3.1310382E-1,1.4537599E-2,1.4208716E-1,4.6159902E-1,-3.6463436E-1,-2.2700183E-1,-2.0677567E-2,6.8048716E-2,3.948927E-2,2.3029181E-1,3.3883374E-2,5.7270147E-2,-3.75064E-2,-6.2376023E-3,-2.8324446E-2,-9.815706E-2,-6.688881E-3,9.688105E-2,-6.777445E-2,9.440682E-2,7.614975E-2,2.7186248E-1,-1.1929544E-1,1.4336586E-3,1.8671036E-2,1.508708E-2,1.00911455E-2,-1.0923004E-1,5.471066E-2,1.3110009E-1,6.8359374E-4,1.2008032E-2,2.8235136E-2,7.2998046E-3,-3.0788423E-3,-1.3083915E-2,5.3110125E-4,2.1354042E-3,-1.2738229E-3,2.7874948E-3,-1.2480355E-2,-3.125477E-3,1.2870788E-3,5.953884E-3,2.7871132E-3,1.49939535E-2],"categories":[],"categories_nodes":[],"categories_segments":[],"categories_sizes":[],"default_left":[0,0,0,0,0,0,0,0,0,0,0,0,0,0,0,0,0,0,0,0,0,0,0,0,0,0,0,0,0,0,0,0,0,0,0,0,0,0,0,0,0,0,0,0,0,0,0,0,0],"id":2,"left_children":[1,3,5,7,9,11,13,15,17,-1,19,21,23,-1,-1,-1,-1,-1,25,-1,27,29,31,33,35,37,-1,39,-1,41,43,45,47,-1,-1,-1,-1,-1,-1,-1,-1,-1,-1,-1,-1,-1,-1,-1,-1],"loss_changes":[6.6675014E0,7.2633624E-1,1.1085961E0,9.913921E-2,1.206553E-1,2.804935E-1,5.146098E-2,5.2263975E-2,1.0263574E-1,0E0,3.7604775E-2,1.0064895E-1,8.823007E-2,0E0,0E0,0E0,0E0,0E0,1.8355832E-2,0E0,2.6740856E-2,2.047004E-2,8.849822E-3,1.4404111E-2,6.5051913E-3,2.1018684E-3,0E0,2.996833E-5,0E0,1.5730566E-3,9.5668435E-4,6.477609E-4,5.544901E-3,0E0,0E0,0E0,0E0,0E0,0E0,0E0,0E0,0E0,0E0,0E0,0E0,0E0,0E0,0E0,0E0],"parents":[2147483647,0,0,1,1,2,2,3,3,4,4,5,5,6,6,7,7,8,8,10,10,11,11,12,12,18,18,20,20,21,21,22,22,23,23,24,24,25,25,27,27,29,29,30,30,31,31,32,32],"right_children":[2,4,6,8,10,12,14,16,18,-1,20,22,24,-1,-1,-1,-1,-1,26,-1,28,30,32,34,36,38,-1,40,-1,42,44,46,48,-1,-1,-1,-1,-1,-1,-1,-1,-1,-1,-1,-1,-1,-1,-1,-1],"split_conditions":[1.964E3,2.784E1,2.001E3,2.685E1,3.31E1,2.54E1,2.832E1,2.599E1,1.94E3,-2.0677567E-2,2.475E1,2.692E1,3.342E1,3.3883374E-2,5.7270147E-2,-3.75064E-2,-6.2376023E-3,-2.8324446E-2,2.735E1,-6.688881E-3,1.953E3,2.662E1,3.383E1,2.585E1,3.53E1,1.944E3,1.4336586E-3,1.903E3,1.508708E-2,1.969E3,1.979E3,1.977E3,1.967E3,6.8359374E-4,1.2008032E-2,2.8235136E-2,7.2998046E-3,-3.0788423E-3,-1.3083915E-2,5.3110125E-4,2.1354042E-3,-1.2738229E-3,2.7874948E-3,-1.2480355E-2,-3.125477E-3,1.2870788E-3,5.953884E-3,2.7871132E-3,1.49939535E-2],"split_indices":[0,2,0,2,3,1,2,1,0,0,1,2,3,0,0,0,0,0,2,0,0,2,3,1,3,0,0,0,0,0,0,0,0,0,0,0,0,0,0,0,0,0,0,0,0,0,0,0,0],"split_type":[0,0,0,0,0,0,0,0,0,0,0,0,0,0,0,0,0,0,0,0,0,0,0,0,0,0,0,0,0,0,0,0,0,0,0,0,0,0,0,0,0,0,0,0,0,0,0,0,0],"sum_hessian":[9.6E1,4.8E1,4.8E1,4E1,8E0,3.1E1,1.7E1,2.3E1,1.7E1,1E0,7E0,1.5E1,1.6E1,1E1,7E0,2.2E1,1E0,1.1E1,6E0,1E0,6E0,5E0,1E1,4E0,1.2E1,5E0,1E0,3E0,3E0,2E0,3E0,6E0,4E0,2E0,2E0,1.1E1,1E0,1E0,4E0,1E0,2E0,1E0,1E0,2E0,1E0,1E0,5E0,1E0,3E0],"tree_param":{"num_deleted":"0","num_feature":"4","num_nodes":"49","size_leaf_vector":"1"}},{"base_weights":[1.9394393E-3,-2.3535098E-1,2.3919028E-1,-2.839107E-1,1.201566E-2,1.3403349E-1,4.2924812E-1,-3.2999387E-1,-2.0669365E-1,-1.9643689E-2,6.262684E-2,3.6223292E-2,2.1352959E-1,2.7316067E-2,4.8955396E-2,-3.391886E-2,-5.925751E-3,-2.5728067E-2,-9.0445384E-2,-6.3544274E-3,8.972903E-2,-6.334559E-2,8.724057E-2,7.107315E-2,2.4915478E-1,-1.1005942E-1,1.3619423E-3,1.747036E-2,1.3955546E-2,9.58697E-3,-1.02208614E-1,5.027335E-2,1.2154655E-1,6.380717E-4,1.1207453E-2,2.5765154E-1,6.9348337E-3,-2.9249191E-3,-1.2037163E-2,5.045891E-4,1.9929886E-3,-1.2101174E-3,2.648163E-3,-1.1648369E-2,-2.9691698E-3,1.2227058E-3,5.457656E-3,2.6477815E-3,1.3869429E-2,1.5813637E-1,3.000815E-2,3.035736E-3,1.776207E-2],"categories":[],"categories_nodes":[],"categories_segments":[],"categories_sizes":[],"default_left":[0,0,0,0,0,0,0,0,0,0,0,0,0,0,0,0,0,0,0,0,0,0,0,0,0,0,0,0,0,0,0,0,0,0,0,0,0,0,0,0,0,0,0,0,0,0,0,0,0,0,0,0,0],"id":3,"left_children":[1,3,5,7,9,11,13,15,17,-1,19,21,23,-1,-1,-1,-1,-1,25,-1,27,29,31,33,35,37,-1,39,-1,41,43,45,47,-1,-1,49,-1,-1,-1,-1,-1,-1,-1,-1,-1,-1,-1,-1,-1,51,-1,-1,-1],"loss_changes":[5.517137E0,5.920019E-1,9.2177415E-1,7.768726E-2,1.0725248E-1,2.4885768E-1,2.6293755E-2,3.964472E-2,8.258188E-2,0E0,3.305788E-2,8.6802036E-2,7.364249E-2,0E0,0E0,0E0,0E0,0E0,1.5786864E-2,0E0,2.276465E-2,1.798615E-2,7.839613E-3,1.2547281E-2,3.5211444E-3,1.4792234E-3,0E0,2.1669199E-5,0E0,1.4197002E-3,6.8214163E-4,4.7873333E-4,4.478745E-3,0E0,0E0,7.437706E-3,0E0,0E0,0E0,0E0,0E0,0E0,0E0,0E0,0E0,0E0,0E0,0E0,0E0,9.5460415E-3,0E0,0E0,0E0],"parents":[2147483647,0,0,1,1,2,2,3,3,4,4,5,5,6,6,7,7,8,8,10,10,11,11,12,12,18,18,20,20,21,21,22,22,23,23,24,24,25,25,27,27,29,29,30,30,31,31,32,32,35,35,49,49],"right_children":[2,4,6,8,10,12,14,16,18,-1,20,22,24,-1,-1,-1,-1,-1,26,-1,28,30,32,34,36,38,-1,40,-1,42,44,46,48,-1,-1,50,-1,-1,-1,-1,-1,-1,-1,-1,-1,-1,-1,-1,-1,52,-1,-1,-1],"split_conditions":[1.964E3,2.784E1,2.002E3,2.685E1,3.31E1,2.54E1,2.01E3,2.599E1,1.94E3,-1.9643689E-2,2.475E1,2.692E1,3.342E1,2.7316067E-2,4.8955396E-2,-3.391886E-2,-5.925751E-3,-2.5728067E-2,2.735E1,-6.3544274E-3,1.953E3,2.662E1,3.383E1,2.585E1,3.53E1,1.944E3,1.3619423E-3,1.903E3,1.3955546E-2,1.969E3,1.979E3,1.977E3,1.967E3,6.380717E-4,1.1207453E-2,2.568E1,6.9348337E-3,-2.9249191E-3,-1.2037163E-2,5.045891E-4,1.9929886E-3,-1.2101174E-3,2.648163E-3,-1.1648369E-2,-2.9691698E-3,1.2227058E-3,5.457656E-3,2.6477815E-3,1.3869429E-2,1.972E3,3.000815E-2,3.035736E-3,1.776207E-2],"split_indices":[0,2,0,2,3,1,0,1,0,0,1,2,3,0,0,0,0,0,2,0,0,2,3,1,3,0,0,0,0,0,0,0,0,0,0,1,0,0,0,0,0,0,0,0,0,0,0,0,0,0,0,0,0],"split_type":[0,0,0,0,0,0,0,0,0,0,0,0,0,0,0,0,0,0,0,0,0,0,0,0,0,0,0,0,0,0,0,0,0,0,0,0,0,0,0,0,0,0,0,0,0,0,0,0,0,0,0,0,0],"sum_hessian":[9.6E1,4.8E1,4.8E1,4E1,8E0,3.2E1,1.6E1,2.3E1,1.7E1,1E0,7E0,1.5E1,1.7E1,6E0,1E1,2.2E1,1E0,1.1E1,6E0,1E0,6E0,5E0,1E1,4E0,1.3E1,5E0,1E0,3E0,3E0,2E0,3E0,6E0,4E0,2E0,2E0,1.2E1,1E0,1E0,4E0,1E0,2E0,1E0,1E0,2E0,1E0,1E0,5E0,1E0,3E0,5E0,7E0,1E0,4E0],"tree_param":{"num_deleted":"0","num_feature":"4","num_nodes":"53","size_leaf_vector":"1"}},{"base_weights":[2.4377685E-3,-2.1362662E-1,2.1845241E-1,-2.5745085E-1,9.753333E-3,1.2304243E-1,3.908099E-1,-2.9865512E-1,-1.88209E-1,-1.8661499E-2,5.7626247E-2,3.3227205E-2,1.9604248E-1,2.7840978E-2,4.8245884E-2,-3.0674497E-2,-5.629444E-3,-2.3369646E-1,-8.3343506E-2,-6.036663E-3,8.3106175E-2,-5.92076E-2,8.0625534E-2,6.633453E-2,2.2836372E-1,-2.5974615E-2,-1.16660595E-2,-1.0154692E-1,1.29385E-3,1.6347408E-2,1.2908841E-2,9.10759E-3,-9.564209E-2,4.620089E-2,1.12694934E-1,5.9547427E-4,1.0460282E-2,2.3579465E-1,6.5880776E-3,-2.7786256E-3,-1.1074181E-2,4.7931672E-4,1.86011E-3,-1.1496544E-3,2.5157928E-3,-1.0871824E-2,-2.8206825E-3,1.1615753E-3,5.0029117E-3,2.5154115E-3,1.2829161E-2,1.4578946E-1,2.7382422E-2,2.8839111E-3,1.634117E-2],"categories":[],"categories_nodes":[],"categories_segments":[],"categories_sizes":[],"default_left":[0,0,0,0,0,0,0,0,0,0,0,0,0,0,0,0,0,0,0,0,0,0,0,0,0,0,0,0,0,0,0,0,0,0,0,0,0,0,0,0,0,0,0,0,0,0,0,0,0,0,0,0,0,0,0],"id":4,"left_children":[1,3,5,7,9,11,13,15,17,-1,19,21,23,-1,-1,-1,-1,25,27,-1,29,31,33,35,37,-1,-1,39,-1,41,-1,43,45,47,49,-1,-1,51,-1,-1,-1,-1,-1,-1,-1,-1,-1,-1,-1,-1,-1,53,-1,-1,-1],"loss_changes":[4.573955E0,4.821942E-1,7.5770044E-1,6.0765743E-2,9.5360436E-2,2.0985109E-1,4.0801764E-2,2.9787779E-2,6.638408E-2,0E0,2.906844E-2,7.487372E-2,6.0313284E-2,0E0,0E0,0E0,0E0,6.282747E-3,1.3582498E-2,0E0,1.9377757E-2,1.5805246E-2,6.9371536E-3,1.093027E-2,1.3692975E-3,0E0,0E0,9.922236E-4,0E0,1.500058E-5,0E0,1.2813391E-3,4.6057627E-4,3.4567248E-4,3.599666E-3,0E0,0E0,4.576504E-3,0E0,0E0,0E0,0E0,0E0,0E0,0E0,0E0,0E0,0E0,0E0,0E0,0E0,7.6529235E-3,0E0,0E0,0E0],"parents":[2147483647,0,0,1,1,2,2,3,3,4,4,5,5,6,6,7,7,8,8,10,10,11,11,12,12,17,17,18,18,20,20,21,21,22,22,23,23,24,24,27,27,29,29,31,31,32,32,33,33,34,34,37,37,51,51],"right_children":[2,4,6,8,10,12,14,16,18,-1,20,22,24,-1,-1,-1,-1,26,28,-1,30,32,34,36,38,-1,-1,40,-1,42,-1,44,46,48,50,-1,-1,52,-1,-1,-1,-1,-1,-1,-1,-1,-1,-1,-1,-1,-1,54,-1,-1,-1],"split_conditions":[1.964E3,2.784E1,2.002E3,2.685E1,3.31E1,2.54E1,2.829E1,2.599E1,1.94E3,-1.8661499E-2,2.475E1,2.692E1,3.342E1,2.7840978E-2,4.8245884E-2,-3.0674497E-2,-5.629444E-3,3.367E1,2.735E1,-6.036663E-3,1.953E3,2.662E1,3.383E1,2.585E1,3.53E1,-2.5974615E-2,-1.16660595E-2,1.944E3,1.29385E-3,1.903E3,1.2908841E-2,1.969E3,1.979E3,1.977E3,1.967E3,5.9547427E-4,1.0460282E-2,2.568E1,6.5880776E-3,-2.7786256E-3,-1.1074181E-2,4.7931672E-4,1.86011E-3,-1.1496544E-3,2.5157928E-3,-1.0871824E-2,-2.8206825E-3,1.1615753E-3,5.0029117E-3,2.5154115E-3,1.2829161E-2,1.972E3,2.7382422E-2,2.8839111E-3,1.634117E-2],"split_indices":[0,2,0,2,3,1,2,1,0,0,1,2,3,0,0,0,0,3,2,0,0,2,3,1,3,0,0,0,0,0,0,0,0,0,0,0,0,1,0,0,0,0,0,0,0,0,0,0,0,0,0,0,0,0,0],"split_type":[0,0,0,0,0,0,0,0,0,0,0,0,0,0,0,0,0,0,0,0,0,0,0,0,0,0,0,0,0,0,0,0,0,0,0,0,0,0,0,0,0,0,0,0,0,0,0,0,0,0,0,0,0,0,0],"sum_hessian":[9.6E1,4.8E1,4.8E1,4E1,8E0,3.2E1,1.6E1,2.3E1,1.7E1,1E0,7E0,1.5E1,1.7E1,9E0,7E0,2.2E1,1E0,1.1E1,6E0,1E0,6E0,5E0,1E1,4E0,1.3E1,8E0,3E0,5E0,1E0,3E0,3E0,2E0,3E0,6E0,4E0,2E0,2E0,1.2E1,1E0,1E0,4E0,1E0,2E0,1E0,1E0,2E0,1E0,1E0,5E0,1E0,3E0,5E0,7E0,1E0,4E0],"tree_param":{"num_deleted":"0","num_feature":"4","num_nodes":"55","size_leaf_vector":"1"}},{"base_weights":[2.7460905E-3,-1.9422251E-1,1.9965865E-1,-2.3381601E-1,7.728153E-3,1.12963766E-1,3.562041E-1,-3.029596E-1,-1.9475798E-1,-1.7728424E-2,5.3015232E-2,3.0478477E-2,1.8000825E-1,2.5335236E-2,4.4024324E-1,-1.15626335E-1,-3.4759694E-1,-2.7026463E-2,-1.584484E-1,-5.734825E-3,7.697405E-2,-5.5341084E-2,7.4518375E-2,6.1912537E-2,2.0932756E-2,1.2869931E-2,4.663639E-2,-1.6611226E-2,1.7915725E-3,-3.6949117E-2,-7.527447E-3,-2.1334308E-1,-1.118412E-1,1.529789E-2,1.194067E-2,8.6523695E-3,-8.9500904E-2,4.2461395E-2,1.04494475E-1,5.558014E-4,9.762955E-3,-4.940891E-3,-2.2765875E-1,-1.7084122E-3,-1.17816046E-1,4.553795E-4,1.7361323E-3,-1.0921479E-3,2.3900033E-3,-1.1860276E-2,-4.026604E-3,1.1034965E-3,4.5859977E-3,2.3896217E-3,1.1866999E-2,-2.4490139E-2,-5.348015E-3,-1.3214855E-1,-5.2530766E-2,-8.208084E-3,-1.658001E-2,1.2291908E-3,-7.823563E-3],"categories":[],"categories_nodes":[],"categories_segments":[],"categories_sizes":[],"default_left":[0,0,0,0,0,0,0,0,0,0,0,0,0,0,0,0,0,0,0,0,0,0,0,0,0,0,0,0,0,0,0,0,0,0,0,0,0,0,0,0,0,0,0,0,0,0,0,0,0,0,0,0,0,0,0,0,0,0,0,0,0,0,0],"id":5,"left_children":[1,3,5,7,9,11,13,15,17,-1,19,21,23,-1,25,27,29,-1,31,-1,33,35,37,39,-1,-1,-1,-1,-1,-1,-1,41,43,45,-1,47,49,51,53,-1,-1,-1,55,-1,57,-1,-1,-1,-1,-1,-1,-1,-1,-1,-1,-1,-1,59,61,-1,-1,-1,-1],"loss_changes":[3.8009806E0,3.9360785E-1,6.247748E-1,5.1721096E-2,8.48068E-2,1.770097E-1,3.5403967E-2,6.851542E-2,3.6683917E-2,0E0,2.5567757E-2,6.4595684E-2,4.9364686E-2,0E0,5.0811768E-3,2.9944006E-2,3.1809688E-2,0E0,3.242618E-2,0E0,1.649291E-2,1.3890423E-2,6.133396E-3,9.521449E-3,0E0,0E0,0E0,0E0,0E0,0E0,0E0,9.873062E-3,5.9134513E-3,9.618991E-6,0E0,1.15639E-3,9.5564127E-4,2.4157204E-4,2.8768443E-3,0E0,0E0,0E0,1.0929018E-2,0E0,5.222261E-3,0E0,0E0,0E0,0E0,0E0,0E0,0E0,0E0,0E0,0E0,0E0,0E0,3.2395422E-3,7.6266974E-3,0E0,0E0,0E0,0E0],"parents":[2147483647,0,0,1,1,2,2,3,3,4,4,5,5,6,6,7,7,8,8,10,10,11,11,12,12,14,14,15,15,16,16,18,18,20,20,21,21,22,22,23,23,31,31,32,32,33,33,35,35,36,36,37,37,38,38,42,42,44,44,57,57,58,58],"right_children":[2,4,6,8,10,12,14,16,18,-1,20,22,24,-1,26,28,30,-1,32,-1,34,36,38,40,-1,-1,-1,-1,-1,-1,-1,42,44,46,-1,48,50,52,54,-1,-1,-1,56,-1,58,-1,-1,-1,-1,-1,-1,-1,-1,-1,-1,-1,-1,60,62,-1,-1,-1,-1],"split_conditions":[1.964E3,2.784E1,2.002E3,1.918E3,3.31E1,2.54E1,2.829E1,2.613E1,2.464E1,-1.7728424E-2,2.475E1,2.692E1,3.342E1,2.5335236E-2,2.007E3,1.908E3,3.401E1,-2.7026463E-2,2.655E1,-5.734825E-3,1.953E3,2.662E1,3.383E1,2.585E1,2.0932756E-2,1.2869931E-2,4.663639E-2,-1.6611226E-2,1.7915725E-3,-3.6949117E-2,-7.527447E-3,2.479E1,1.921E3,1.903E3,1.194067E-2,1.969E3,1.976E3,1.977E3,1.967E3,5.558014E-4,9.762955E-3,-4.940891E-3,2.568E1,-1.7084122E-3,1.95E3,4.553795E-4,1.7361323E-3,-1.0921479E-3,2.3900033E-3,-1.1860276E-2,-4.026604E-3,1.1034965E-3,4.5859977E-3,2.3896217E-3,1.1866999E-2,-2.4490139E-2,-5.348015E-3,2.497E1,1.952E3,-8.208084E-3,-1.658001E-2,1.2291908E-3,-7.823563E-3],"split_indices":[0,2,0,0,3,1,2,2,1,0,1,2,3,0,0,0,3,0,2,0,0,2,3,1,0,0,0,0,0,0,0,1,0,0,0,0,0,0,0,0,0,0,1,0,0,0,0,0,0,0,0,0,0,0,0,0,0,1,0,0,0,0,0],"split_type":[0,0,0,0,0,0,0,0,0,0,0,0,0,0,0,0,0,0,0,0,0,0,0,0,0,0,0,0,0,0,0,0,0,0,0,0,0,0,0,0,0,0,0,0,0,0,0,0,0,0,0,0,0,0,0,0,0,0,0,0,0,0,0],"sum_hessian":[9.6E1,4.8E1,4.8E1,4E1,8E0,3.2E1,1.6E1,1.2E1,2.8E1,1E0,7E0,1.5E1,1.7E1,9E0,7E0,3E0,9E0,7E0,2.1E1,1E0,6E0,5E0,1E1,4E0,1.3E1,1E0,6E0,2E0,1E0,8E0,1E0,8E0,1.3E1,3E0,3E0,2E0,3E0,6E0,4E0,2E0,2E0,1E0,7E0,1E0,1.2E1,1E0,2E0,1E0,1E0,1E0,2E0,1E0,5E0,1E0,3E0,6E0,1E0,9E0,3E0,5E0,4E0,1E0,2E0],"tree_param":{"num_deleted":"0","num_feature":"4","num_nodes":"63","size_leaf_vector":"1"}},{"base_weights":[2.037776E-3,-1.7813726E-1,1.8217123E-1,-2.1419501E-1,5.9189266E-3,1.0277662E-1,3.255742E-1,-2.987243E-1,-1.8465082E-1,-1.6841983E-2,4.8763752E-2,2.7765512E-2,1.6374333E-1,2.3055058E-2,4.0365696E-1,-1.7029789E-1,-4.988111E-2,-2.093401E-1,-1.361911E-1,-5.4480555E-3,7.129587E-2,-5.2238464E-2,6.887991E-2,5.7785034E-2,1.8988964E-1,4.2716217E-1,1.1956024E-2,-2.0257346E-2,1.1677742E-3,-1.2549043E-1,-2.448368E-1,-1.6731154E-2,-9.193683E-2,1.4316082E-2,1.104517E-2,8.2200365E-3,-8.4522724E-2,3.902844E-2,9.689598E-2,5.187988E-4,9.1120405E-3,1.16971016E-1,2.174032E-1,1.2226391E-2,4.576012E-2,1.7020226E-3,-1.4828055E-2,-2.5677219E-2,-5.0806045E-3,-3.6244076E-3,-1.044604E-2,4.3258668E-4,1.6204199E-3,-1.0375023E-3,2.2705079E-3,-1.1267281E-2,-3.758176E-3,1.0482789E-3,4.203892E-3,2.2701265E-3,1.0976935E-2,1.6930581E-3,1.33593E-2,2.3154855E-2,5.212021E-3],"categories":[],"categories_nodes":[],"categories_segments":[],"categories_sizes":[],"default_left":[0,0,0,0,0,0,0,0,0,0,0,0,0,0,0,0,0,0,0,0,0,0,0,0,0,0,0,0,0,0,0,0,0,0,0,0,0,0,0,0,0,0,0,0,0,0,0,0,0,0,0,0,0,0,0,0,0,0,0,0,0,0,0,0,0],"id":6,"left_children":[1,3,5,7,9,11,13,15,17,-1,19,21,23,-1,25,27,-1,29,31,-1,33,35,37,39,41,43,-1,-1,-1,45,47,-1,49,51,-1,53,55,57,59,-1,-1,61,63,-1,-1,-1,-1,-1,-1,-1,-1,-1,-1,-1,-1,-1,-1,-1,-1,-1,-1,-1,-1,-1,-1],"loss_changes":[3.18064E0,3.2646382E-1,5.244243E-1,4.7231674E-2,7.543841E-2,1.4636856E-1,3.3071637E-2,1.4632136E-1,1.0972023E-2,0E0,2.2494745E-2,5.6227222E-2,3.8894743E-2,0E0,2.3503304E-3,4.3479174E-2,0E0,2.880305E-2,3.8988888E-3,0E0,1.4036402E-2,1.2405928E-2,5.4178312E-3,8.293977E-3,2.657652E-3,9.017706E-3,0E0,0E0,0E0,2.8506443E-2,1.706028E-2,0E0,1.7937124E-3,5.3535914E-6,0E0,1.0436163E-3,1.051126E-3,1.6086828E-4,2.2837743E-3,0E0,0E0,7.7154115E-3,8.973479E-3,0E0,0E0,0E0,0E0,0E0,0E0,0E0,0E0,0E0,0E0,0E0,0E0,0E0,0E0,0E0,0E0,0E0,0E0,0E0,0E0,0E0,0E0],"parents":[2147483647,0,0,1,1,2,2,3,3,4,4,5,5,6,6,7,7,8,8,10,10,11,11,12,12,14,14,15,15,17,17,18,18,20,20,21,21,22,22,23,23,24,24,25,25,29,29,30,30,32,32,33,33,35,35,36,36,37,37,38,38,41,41,42,42],"right_children":[2,4,6,8,10,12,14,16,18,-1,20,22,24,-1,26,28,-1,30,32,-1,34,36,38,40,42,44,-1,-1,-1,46,48,-1,50,52,-1,54,56,58,60,-1,-1,62,64,-1,-1,-1,-1,-1,-1,-1,-1,-1,-1,-1,-1,-1,-1,-1,-1,-1,-1,-1,-1,-1,-1],"split_conditions":[1.964E3,2.784E1,2.002E3,3.255E1,3.31E1,2.54E1,2.829E1,3.25E1,2.685E1,-1.6841983E-2,2.475E1,2.692E1,3.342E1,2.3055058E-2,2.02E3,1.947E3,-4.988111E-2,3.325E1,3.367E1,-5.4480555E-3,1.953E3,2.662E1,3.383E1,2.585E1,2.568E1,2.007E3,1.1956024E-2,-2.0257346E-2,1.1677742E-3,2.613E1,2.568E1,-1.6731154E-2,3.381E1,1.903E3,1.104517E-2,1.969E3,1.976E3,1.977E3,1.967E3,5.187988E-4,9.1120405E-3,1.972E3,3.53E1,1.2226391E-2,4.576012E-2,1.7020226E-3,-1.4828055E-2,-2.5677219E-2,-5.0806045E-3,-3.6244076E-3,-1.044604E-2,4.3258668E-4,1.6204199E-3,-1.0375023E-3,2.2705079E-3,-1.1267281E-2,-3.758176E-3,1.0482789E-3,4.203892E-3,2.2701265E-3,1.0976935E-2,1.6930581E-3,1.33593E-2,2.3154855E-2,5.212021E-3],"split_indices":[0,2,0,3,3,1,2,3,2,0,1,2,3,0,0,0,0,3,3,0,0,2,3,1,1,0,0,0,0,2,1,0,3,0,0,0,0,0,0,0,0,0,3,0,0,0,0,0,0,0,0,0,0,0,0,0,0,0,0,0,0,0,0,0,0],"split_type":[0,0,0,0,0,0,0,0,0,0,0,0,0,0,0,0,0,0,0,0,0,0,0,0,0,0,0,0,0,0,0,0,0,0,0,0,0,0,0,0,0,0,0,0,0,0,0,0,0,0,0,0,0,0,0,0,0,0,0,0,0,0,0,0,0],"sum_hessian":[9.6E1,4.8E1,4.8E1,4E1,8E0,3.2E1,1.6E1,8E0,3.2E1,1E0,7E0,1.5E1,1.7E1,9E0,7E0,6E0,2E0,1.9E1,1.3E1,1E0,6E0,5E0,1E1,4E0,1.3E1,6E0,1E0,5E0,1E0,7E0,1.2E1,6E0,7E0,3E0,3E0,2E0,3E0,6E0,4E0,2E0,2E0,5E0,8E0,1E0,5E0,1E0,6E0,1.1E1,1E0,2E0,5E0,1E0,2E0,1E0,1E0,1E0,2E0,1E0,5E0,1E0,3E0,1E0,4E0,7E0,1E0],"tree_param":{"num_deleted":"0","num_feature":"4","num_nodes":"65","size_leaf_vector":"1"}},{"base_weights":[1.8124925E-3,-1.6344297E-1,1.6703096E-1,-1.9627935E-1,4.3053096E-3,9.424909E-2,2.9848805E-1,-2.765149E-1,-1.6844906E-1,-1.5999889E-2,4.4843197E-2,4.8099104E-2,1.8217641E-1,2.0980187E-2,3.720348E-2,-1.5599468E-1,-4.655571E-2,-1.9060059E-1,-1.2477194E-1,-5.175686E-3,6.6037044E-2,-7.330322E-2,6.9974616E-2,3.631592E-4,1.9966774E-1,-1.8569184E-2,1.1094094E-3,-1.145823E-1,-2.2271949E-1,-2.7041435E-3,-1.3020955E-2,1.3397217E-2,1.021676E-2,-9.856224E-4,-9.116682E-3,-3.648758E-3,8.3181605E-2,2.1084998E-2,4.9513816E-3,1.6169548E-3,-1.3557108E-1,-2.332352E-2,-4.8265457E-3,4.1093826E-4,1.5123368E-3,-1.28485365E-2,1.1975289E-3,4.984207E-2,1.1445832E-1,-1.4499123E-2,-3.952503E-3,3.631592E-4,-2.2904396E-3,2.101644E-3,5.4421425E-3,1.6083717E-3,1.2621416E-1,1.3750331E-1,2.9239655E-3,1.4849015E-2,4.128456E-3],"categories":[],"categories_nodes":[],"categories_segments":[],"categories_sizes":[],"default_left":[0,0,0,0,0,0,0,0,0,0,0,0,0,0,0,0,0,0,0,0,0,0,0,0,0,0,0,0,0,0,0,0,0,0,0,0,0,0,0,0,0,0,0,0,0,0,0,0,0,0,0,0,0,0,0,0,0,0,0,0,0],"id":7,"left_children":[1,3,5,7,9,11,13,15,17,-1,19,21,23,-1,-1,25,-1,27,29,-1,31,33,35,-1,37,-1,-1,39,41,-1,-1,43,-1,-1,-1,45,47,-1,-1,-1,49,-1,-1,-1,-1,51,-1,53,55,-1,-1,-1,-1,-1,-1,-1,57,59,-1,-1,-1],"loss_changes":[2.6757157E0,2.7074897E-1,4.4068456E-1,4.4973493E-2,6.711977E-2,1.2514636E-1,3.2830358E-2,1.324262E-1,8.146405E-3,0E0,1.9796481E-2,6.621133E-2,3.362769E-2,0E0,0E0,3.6794484E-2,0E0,2.3312807E-2,3.9188266E-3,0E0,1.1944585E-2,3.635006E-3,1.9750379E-2,0E0,6.3506067E-3,0E0,0E0,2.4146691E-2,1.2591422E-2,0E0,0E0,1.9810977E-6,0E0,0E0,0E0,7.28816E-4,1.20219365E-2,0E0,0E0,0E0,6.0260296E-4,0E0,0E0,0E0,0E0,5.8034505E-4,0E0,1.7628446E-4,7.2218105E-3,0E0,0E0,0E0,0E0,0E0,0E0,0E0,3.6427677E-3,2.1248311E-4,0E0,0E0,0E0],"parents":[2147483647,0,0,1,1,2,2,3,3,4,4,5,5,6,6,7,7,8,8,10,10,11,11,12,12,15,15,17,17,18,18,20,20,21,21,22,22,24,24,27,27,28,28,31,31,35,35,36,36,40,40,45,45,47,47,48,48,56,56,57,57],"right_children":[2,4,6,8,10,12,14,16,18,-1,20,22,24,-1,-1,26,-1,28,30,-1,32,34,36,-1,38,-1,-1,40,42,-1,-1,44,-1,-1,-1,46,48,-1,-1,-1,50,-1,-1,-1,-1,52,-1,54,56,-1,-1,-1,-1,-1,-1,-1,58,60,-1,-1,-1],"split_conditions":[1.964E3,2.784E1,2.002E3,3.255E1,3.31E1,2.804E1,2.829E1,3.25E1,2.685E1,-1.5999889E-2,2.475E1,2.476E1,1.968E3,2.0980187E-2,3.720348E-2,1.947E3,-4.655571E-2,3.325E1,2.686E1,-5.175686E-3,1.953E3,1.969E3,3.323E1,3.631592E-4,3.53E1,-1.8569184E-2,1.1094094E-3,2.613E1,2.568E1,-2.7041435E-3,-1.3020955E-2,1.903E3,1.021676E-2,-9.856224E-4,-9.116682E-3,1.984E3,2.54E1,2.1084998E-2,4.9513816E-3,1.6169548E-3,1.942E3,-2.332352E-2,-4.8265457E-3,4.1093826E-4,1.5123368E-3,1.983E3,1.1975289E-3,1.977E3,1.972E3,-1.4499123E-2,-3.952503E-3,3.631592E-4,-2.2904396E-3,2.101644E-3,5.4421425E-3,1.6083717E-3,2.782E1,2.6E1,2.9239655E-3,1.4849015E-2,4.128456E-3],"split_indices":[0,2,0,3,3,2,2,3,2,0,1,1,0,0,0,0,0,3,2,0,0,0,3,0,3,0,0,2,1,0,0,0,0,0,0,0,1,0,0,0,0,0,0,0,0,0,0,0,0,0,0,0,0,0,0,0,2,1,0,0,0],"split_type":[0,0,0,0,0,0,0,0,0,0,0,0,0,0,0,0,0,0,0,0,0,0,0,0,0,0,0,0,0,0,0,0,0,0,0,0,0,0,0,0,0,0,0,0,0,0,0,0,0,0,0,0,0,0,0,0,0,0,0,0,0],"sum_hessian":[9.6E1,4.8E1,4.8E1,4E1,8E0,3.2E1,1.6E1,8E0,3.2E1,1E0,7E0,2.2E1,1E1,9E0,7E0,6E0,2E0,1.9E1,1.3E1,1E0,6E0,3E0,1.9E1,1E0,9E0,5E0,1E0,7E0,1.2E1,1E0,1.2E1,3E0,3E0,1E0,2E0,3E0,1.6E1,8E0,1E0,1E0,6E0,1.1E1,1E0,1E0,2E0,2E0,1E0,9E0,7E0,5E0,1E0,1E0,1E0,2E0,7E0,1E0,6E0,5E0,1E0,4E0,1E0],"tree_param":{"num_deleted":"0","num_feature":"4","num_nodes":"61","size_leaf_vector":"1"}},{"base_weights":[1.3328041E-3,-1.4982834E-1,1.5246676E-1,-1.7288837E-1,4.424985E-2,1.0249872E-1,3.1576556E-1,-1.8069209E-1,8.133602E-3,1.2538433E-3,7.1781795E-3,3.8032055E-2,1.6184044E-1,3.4642156E-2,1.1854235E-2,-2.3889233E-1,-1.5045677E-1,-6.8498135E-2,6.08608E-2,6.455258E-2,1.9892433E-1,-8.664131E-2,-2.7590352E-1,-2.0762516E-2,-1.251316E-1,-2.3010254E-3,-1.0248089E-2,3.6721304E-2,1.1145134E-2,3.4503939E-4,7.416121E-2,2.0698959E-2,4.703808E-3,-1.257623E-2,1.5360833E-3,-3.2186344E-1,-1.2649775E-2,-3.3221245E-2,-1.366797E-1,7.900238E-4,5.260298E-2,1.5686989E-3,8.271866E-3,-3.458586E-2,-8.894634E-3,5.982081E-3,-7.541561E-3,-7.471061E-2,-1.6232777E-1,1.3522466E-3,-1.220576E-2,6.341044E-2,2.3241043E-3,-1.5659332E-4,1.0539055E-3,-8.704058E-3,-2.514712E-3,-7.2203064E-3,-1.9115734E-1,3.4503939E-4,-2.1759034E-3,1.8849373E-3,6.855278E-3,-2.0868969E-1,-8.06853E-3,-2.3393186E-2,-8.864212E-3],"categories":[],"categories_nodes":[],"categories_segments":[],"categories_sizes":[],"default_left":[0,0,0,0,0,0,0,0,0,0,0,0,0,0,0,0,0,0,0,0,0,0,0,0,0,0,0,0,0,0,0,0,0,0,0,0,0,0,0,0,0,0,0,0,0,0,0,0,0,0,0,0,0,0,0,0,0,0,0,0,0,0,0,0,0,0,0],"id":8,"left_children":[1,3,5,7,9,11,13,15,-1,-1,-1,17,19,-1,-1,21,23,25,27,29,31,33,35,-1,37,-1,-1,39,-1,-1,41,-1,-1,-1,-1,43,-1,45,47,49,51,-1,-1,-1,-1,53,-1,55,57,-1,59,61,-1,-1,-1,-1,-1,-1,63,-1,-1,-1,-1,65,-1,-1,-1],"loss_changes":[2.2388651E0,2.2694719E-1,3.6746085E-1,1.019882E-1,4.338431E-3,1.4304179E-1,2.544105E-2,3.972435E-2,0E0,0E0,0E0,5.2807864E-2,5.9315205E-2,0E0,0E0,4.9350202E-2,1.8901289E-2,3.8251039E-3,1.6668275E-2,3.8538743E-3,7.4136853E-3,1.7893512E-2,2.7951717E-2,0E0,2.0932674E-2,0E0,0E0,7.3768795E-3,0E0,0E0,1.7047338E-3,0E0,0E0,0E0,0E0,8.359253E-3,0E0,7.0677795E-3,2.1249563E-2,9.923923E-4,1.382228E-3,0E0,0E0,0E0,0E0,1.1969177E-4,0E0,2.7001128E-3,2.2573441E-2,0E0,5.237798E-4,8.271076E-5,0E0,0E0,0E0,0E0,0E0,0E0,2.5301576E-3,0E0,0E0,0E0,0E0,3.5058558E-3,0E0,0E0,0E0],"parents":[2147483647,0,0,1,1,2,2,3,3,4,4,5,5,6,6,7,7,11,11,12,12,15,15,16,16,17,17,18,18,19,19,20,20,21,21,22,22,24,24,27,27,30,30,35,35,37,37,38,38,39,39,40,40,45,45,47,47,48,48,50,50,51,51,58,58,63,63],"right_children":[2,4,6,8,10,12,14,16,-1,-1,-1,18,20,-1,-1,22,24,26,28,30,32,34,36,-1,38,-1,-1,40,-1,-1,42,-1,-1,-1,-1,44,-1,46,48,50,52,-1,-1,-1,-1,54,-1,56,58,-1,60,62,-1,-1,-1,-1,-1,-1,64,-1,-1,-1,-1,66,-1,-1,-1],"split_conditions":[1.964E3,2.793E1,2.01E3,2.619E1,1.953E3,2.772E1,2.02E3,1.918E3,8.133602E-3,1.2538433E-3,7.1781795E-3,2.476E1,3.387E1,3.4642156E-2,1.1854235E-2,2.613E1,2.464E1,2.678E1,2.585E1,1.968E3,3.53E1,1.908E3,3.368E1,-2.0762516E-2,3.309E1,-2.3010254E-3,-1.0248089E-2,3.34E1,1.1145134E-2,3.4503939E-4,2.514E1,2.0698959E-2,4.703808E-3,-1.257623E-2,1.5360833E-3,2.52E1,-1.2649775E-2,2.736E1,2.483E1,2.514E1,2.761E1,1.5686989E-3,8.271866E-3,-3.458586E-2,-8.894634E-3,1.921E3,-7.541561E-3,2.479E1,1.933E3,1.3522466E-3,1.983E3,1.985E3,2.3241043E-3,-1.5659332E-4,1.0539055E-3,-8.704058E-3,-2.514712E-3,-7.2203064E-3,3.385E1,3.4503939E-4,-2.1759034E-3,1.8849373E-3,6.855278E-3,2.568E1,-8.06853E-3,-2.3393186E-2,-8.864212E-3],"split_indices":[0,2,0,1,0,2,0,0,0,0,0,1,3,0,0,2,1,2,1,0,3,0,3,0,3,0,0,3,0,0,1,0,0,0,0,1,0,2,1,1,2,0,0,0,0,0,0,1,0,0,0,0,0,0,0,0,0,0,3,0,0,0,0,1,0,0,0],"split_type":[0,0,0,0,0,0,0,0,0,0,0,0,0,0,0,0,0,0,0,0,0,0,0,0,0,0,0,0,0,0,0,0,0,0,0,0,0,0,0,0,0,0,0,0,0,0,0,0,0,0,0,0,0,0,0,0,0,0,0,0,0,0,0,0,0,0,0],"sum_hessian":[9.6E1,4.8E1,4.8E1,4.3E1,5E0,3.8E1,1E1,4.2E1,1E0,3E0,2E0,1.9E1,1.9E1,8E0,2E0,1.2E1,3E1,3E0,1.6E1,6E0,1.3E1,3E0,9E0,7E0,2.3E1,2E0,1E0,1.2E1,4E0,1E0,5E0,1.2E1,1E0,2E0,1E0,6E0,3E0,3E0,2E1,4E0,8E0,1E0,4E0,5E0,1E0,2E0,1E0,7E0,1.3E1,2E0,2E0,5E0,3E0,1E0,1E0,5E0,2E0,4E0,9E0,1E0,1E0,1E0,4E0,7E0,2E0,5E0,2E0],"tree_param":{"num_deleted":"0","num_feature":"4","num_nodes":"67","size_leaf_vector":"1"}},{"base_weights":[7.3061284E-4,-1.3763669E-1,1.3908301E-1,-1.588996E-1,4.123084E-2,9.339704E-2,2.884166E-1,-1.6618888E-1,7.7269557E-3,1.1598587E-2,6.6996897E-3,3.4688186E-2,1.4743605E-1,3.1562933E-1,1.1063958E-2,-2.392506E-1,-1.4265333E-1,3.2777787E-4,1.3279597E-3,-6.478596E-2,5.6053385E-2,5.955233E-2,1.8084677E-1,1.8891832E-2,3.7921447E-2,-1.2929235E-1,-4.1606966E-2,-1.5157779E-1,-8.530153E-2,-2.1476746E-3,-9.73568E-3,3.38638E-2,1.0253563E-2,2.9349517E-2,9.003958E-3,1.8788323E-2,4.468632E-3,-1.5417831E-2,1.0011673E-3,-1.227595E-1,-1.8217374E-2,-9.230009E-3,-2.1655082E-3,6.153107E-4,4.857254E-2,3.2777787E-4,3.5048008E-3,-1.5953007E-1,-6.8263374E-2,1.2620926E-3,-1.1595408E-2,5.8526355E-3,2.149868E-3,-4.5598347E-2,-1.823132E-1,-9.998436E-3,-2.288971E-2,3.2777787E-4,-2.067089E-3,-8.299065E-3,1.4593125E-3,-1.9887296E-2,-3.3197403E-3,-1.487732E-4,-2.786827E-3],"categories":[],"categories_nodes":[],"categories_segments":[],"categories_sizes":[],"default_left":[0,0,0,0,0,0,0,0,0,0,0,0,0,0,0,0,0,0,0,0,0,0,0,0,0,0,0,0,0,0,0,0,0,0,0,0,0,0,0,0,0,0,0,0,0,0,0,0,0,0,0,0,0,0,0,0,0,0,0,0,0,0,0,0,0],"id":9,"left_children":[1,3,5,7,9,11,13,15,-1,17,-1,19,21,23,-1,25,27,-1,-1,29,31,33,35,-1,-1,37,-1,39,41,-1,-1,43,-1,45,-1,-1,-1,-1,-1,47,-1,-1,-1,49,51,-1,-1,53,55,-1,57,-1,-1,59,61,-1,63,-1,-1,-1,-1,-1,-1,-1,-1],"loss_changes":[1.8760574E0,1.9291073E-1,3.073628E-1,8.8587284E-2,3.8039675E-3,1.18615866E-1,1.8294632E-2,3.9810777E-2,0E0,1.2421864E-5,0E0,4.613717E-2,4.7955304E-2,8.7195635E-4,0E0,1.2118983E-1,4.984379E-3,0E0,0E0,3.5515614E-3,1.406192E-2,3.8029812E-3,5.0174296E-3,0E0,0E0,2.581057E-2,0E0,3.2064319E-3,1.1192672E-3,0E0,0E0,6.3276766E-3,0E0,6.27968E-4,0E0,0E0,0E0,0E0,0E0,2.5179297E-2,0E0,0E0,0E0,8.793308E-4,1.1671539E-3,0E0,0E0,1.7644048E-2,1.0665063E-2,0E0,4.7269865E-4,0E0,0E0,7.963186E-3,1.315254E-2,0E0,4.91295E-4,0E0,0E0,0E0,0E0,0E0,0E0,0E0,0E0],"parents":[2147483647,0,0,1,1,2,2,3,3,4,4,5,5,6,6,7,7,9,9,11,11,12,12,13,13,15,15,16,16,19,19,20,20,21,21,22,22,25,25,27,27,28,28,31,31,33,33,39,39,43,43,44,44,47,47,48,48,50,50,53,53,54,54,56,56],"right_children":[2,4,6,8,10,12,14,16,-1,18,-1,20,22,24,-1,26,28,-1,-1,30,32,34,36,-1,-1,38,-1,40,42,-1,-1,44,-1,46,-1,-1,-1,-1,-1,48,-1,-1,-1,50,52,-1,-1,54,56,-1,58,-1,-1,60,62,-1,64,-1,-1,-1,-1,-1,-1,-1,-1],"split_conditions":[1.964E3,2.793E1,2.01E3,2.619E1,1.953E3,2.772E1,2.02E3,3.255E1,7.7269557E-3,1.903E3,6.6996897E-3,2.476E1,3.387E1,2.864E1,1.1063958E-2,3.25E1,3.401E1,3.2777787E-4,1.3279597E-3,2.678E1,2.585E1,2.552E1,3.53E1,1.8891832E-2,3.7921447E-2,1.947E3,-4.1606966E-2,2.503E1,1.955E3,-2.1476746E-3,-9.73568E-3,3.34E1,1.0253563E-2,1.968E3,9.003958E-3,1.8788323E-2,4.468632E-3,-1.5417831E-2,1.0011673E-3,2.655E1,-1.8217374E-2,-9.230009E-3,-2.1655082E-3,2.514E1,2.761E1,3.2777787E-4,3.5048008E-3,2.613E1,2.474E1,1.2620926E-3,1.983E3,5.8526355E-3,2.149868E-3,1.907E3,1.938E3,-9.998436E-3,1.921E3,3.2777787E-4,-2.067089E-3,-8.299065E-3,1.4593125E-3,-1.9887296E-2,-3.3197403E-3,-1.487732E-4,-2.786827E-3],"split_indices":[0,2,0,1,0,2,0,3,0,0,0,1,3,2,0,3,3,0,0,2,1,1,3,0,0,0,0,1,0,0,0,3,0,0,0,0,0,0,0,2,0,0,0,1,2,0,0,2,1,0,0,0,0,0,0,0,0,0,0,0,0,0,0,0,0],"split_type":[0,0,0,0,0,0,0,0,0,0,0,0,0,0,0,0,0,0,0,0,0,0,0,0,0,0,0,0,0,0,0,0,0,0,0,0,0,0,0,0,0,0,0,0,0,0,0,0,0,0,0,0,0,0,0,0,0,0,0,0,0,0,0,0,0],"sum_hessian":[9.6E1,4.8E1,4.8E1,4.3E1,5E0,3.8E1,1E1,4.2E1,1E0,3E0,2E0,1.9E1,1.9E1,8E0,2E0,8E0,3.4E1,1E0,2E0,3E0,1.6E1,6E0,1.3E1,4E0,4E0,6E0,2E0,2.8E1,6E0,2E0,1E0,1.2E1,4E0,4E0,2E0,1.2E1,1E0,5E0,1E0,1.7E1,1.1E1,5E0,1E0,4E0,8E0,1E0,3E0,9E0,8E0,2E0,2E0,5E0,3E0,2E0,7E0,4E0,4E0,1E0,1E0,1E0,1E0,6E0,1E0,1E0,3E0],"tree_param":{"num_deleted":"0","num_feature":"4","num_nodes":"65","size_leaf_vector":"1"}},{"base_weights":[6.300149E-4,-1.2616979E-1,1.2741697E-1,-1.4575729E-1,3.850015E-2,8.5134216E-2,2.6574516E-1,-1.5256123E-1,7.340622E-3,1.0852814E-2,6.2529887E-3,3.1514265E-2,1.3449745E-1,1.8530106E-2,3.601971E-2,-2.2155084E-1,-1.3046215E-1,3.1137466E-4,1.2394588E-3,-6.1278343E-2,5.1494036E-2,5.5430274E-2,1.6442408E-1,-1.18423186E-1,-3.8833175E-2,-1.3853027E-1,-7.839966E-2,-2.0044963E-3,-9.248924E-3,3.1056624E-2,9.43325E-2,2.7180482E-2,8.4036505E-3,1.7054103E-2,4.2451858E-3,-1.4133072E-2,9.510994E-4,-1.1287117E-1,-1.6547473E-2,-8.460871E-3,-2.0572662E-3,4.5814514E-4,4.4605043E-2,1.0365486E-2,2.8521537E-3,3.1137466E-4,3.2418729E-3,-1.4658126E-1,-6.2874265E-2,1.1779149E-3,-1.1015574E-2,2.6474E-3,6.065035E-3,-4.331843E-2,-1.6698217E-1,-9.198571E-3,-2.1187972E-2,3.1137466E-4,-1.9637109E-3,-7.8841215E-3,1.3863564E-3,-1.8182619E-2,-3.1537057E-3,-1.4133453E-4,-2.5778294E-3],"categories":[],"categories_nodes":[],"categories_segments":[],"categories_sizes":[],"default_left":[0,0,0,0,0,0,0,0,0,0,0,0,0,0,0,0,0,0,0,0,0,0,0,0,0,0,0,0,0,0,0,0,0,0,0,0,0,0,0,0,0,0,0,0,0,0,0,0,0,0,0,0,0,0,0,0,0,0,0,0,0,0,0,0,0],"id":10,"left_children":[1,3,5,7,9,11,13,15,-1,17,-1,19,21,-1,-1,23,25,-1,-1,27,29,31,33,35,-1,37,39,-1,-1,41,43,45,-1,-1,-1,-1,-1,47,-1,-1,-1,49,51,-1,-1,-1,-1,53,55,-1,57,-1,-1,59,61,-1,63,-1,-1,-1,-1,-1,-1,-1,-1],"loss_changes":[1.5755025E0,1.6365975E-1,2.6397192E-1,7.681078E-2,3.3075241E-3,9.898877E-2,1.68342E-2,3.6654115E-2,0E0,9.133975E-6,0E0,4.023498E-2,3.8210183E-2,0E0,0E0,1.0881004E-1,3.8409233E-3,0E0,0E0,3.2937806E-3,1.1953976E-2,3.3726897E-3,3.2055974E-3,2.1858782E-2,0E0,1.372397E-3,7.727295E-4,0E0,0E0,5.3688567E-3,1.1117384E-4,5.293938E-4,0E0,0E0,0E0,0E0,0E0,2.112101E-2,0E0,0E0,0E0,7.792242E-4,1.0126065E-3,0E0,0E0,0E0,0E0,1.3833165E-2,8.972939E-3,0E0,4.2659423E-4,0E0,0E0,7.1868105E-3,1.0350108E-2,0E0,4.17426E-4,0E0,0E0,0E0,0E0,0E0,0E0,0E0,0E0],"parents":[2147483647,0,0,1,1,2,2,3,3,4,4,5,5,6,6,7,7,9,9,11,11,12,12,15,15,16,16,19,19,20,20,21,21,22,22,23,23,25,25,26,26,29,29,30,30,31,31,37,37,41,41,42,42,47,47,48,48,50,50,53,53,54,54,56,56],"right_children":[2,4,6,8,10,12,14,16,-1,18,-1,20,22,-1,-1,24,26,-1,-1,28,30,32,34,36,-1,38,40,-1,-1,42,44,46,-1,-1,-1,-1,-1,48,-1,-1,-1,50,52,-1,-1,-1,-1,54,56,-1,58,-1,-1,60,62,-1,64,-1,-1,-1,-1,-1,-1,-1,-1],"split_conditions":[1.964E3,2.793E1,2.01E3,2.619E1,1.953E3,2.772E1,2.598E1,3.255E1,7.340622E-3,1.903E3,6.2529887E-3,2.476E1,3.387E1,1.8530106E-2,3.601971E-2,3.25E1,3.401E1,3.1137466E-4,1.2394588E-3,2.678E1,2.585E1,2.552E1,3.53E1,1.947E3,-3.8833175E-2,2.503E1,1.955E3,-2.0044963E-3,-9.248924E-3,3.34E1,2.6E1,1.968E3,8.4036505E-3,1.7054103E-2,4.2451858E-3,-1.4133072E-2,9.510994E-4,2.655E1,-1.6547473E-2,-8.460871E-3,-2.0572662E-3,2.514E1,1.992E3,1.0365486E-2,2.8521537E-3,3.1137466E-4,3.2418729E-3,2.613E1,2.474E1,1.1779149E-3,1.983E3,2.6474E-3,6.065035E-3,1.907E3,1.938E3,-9.198571E-3,1.921E3,3.1137466E-4,-1.9637109E-3,-7.8841215E-3,1.3863564E-3,-1.8182619E-2,-3.1537057E-3,-1.4133453E-4,-2.5778294E-3],"split_indices":[0,2,0,1,0,2,1,3,0,0,0,1,3,0,0,3,3,0,0,2,1,1,3,0,0,1,0,0,0,3,1,0,0,0,0,0,0,2,0,0,0,1,0,0,0,0,0,2,1,0,0,0,0,0,0,0,0,0,0,0,0,0,0,0,0],"split_type":[0,0,0,0,0,0,0,0,0,0,0,0,0,0,0,0,0,0,0,0,0,0,0,0,0,0,0,0,0,0,0,0,0,0,0,0,0,0,0,0,0,0,0,0,0,0,0,0,0,0,0,0,0,0,0,0,0,0,0,0,0,0,0,0,0],"sum_hessian":[9.6E1,4.8E1,4.8E1,4.3E1,5E0,3.8E1,1E1,4.2E1,1E0,3E0,2E0,1.9E1,1.9E1,7E0,3E0,8E0,3.4E1,1E0,2E0,3E0,1.6E1,6E0,1.3E1,6E0,2E0,2.8E1,6E0,2E0,1E0,1.2E1,4E0,4E0,2E0,1.2E1,1E0,5E0,1E0,1.7E1,1.1E1,5E0,1E0,4E0,8E0,3E0,1E0,1E0,3E0,9E0,8E0,2E0,2E0,5E0,3E0,2E0,7E0,4E0,4E0,1E0,1E0,1E0,1E0,6E0,1E0,1E0,3E0],"tree_param":{"num_deleted":"0","num_feature":"4","num_nodes":"65","size_leaf_vector":"1"}},{"base_weights":[5.086722E-4,-1.1566855E-1,1.1667551E-1,-1.3371511E-1,3.5950977E-2,7.7735215E-2,2.441297E-1,-1.4006828E-1,6.973553E-3,1.0155201E-2,5.8361692E-3,3.9001923E-2,1.3710836E-1,1.690874E-2,3.3318188E-2,-1.9049512E-1,-1.144032E-1,2.9582978E-4,1.156807E-3,-4.0308315E-2,6.08449E-2,2.9582978E-4,1.464792E-1,-1.4589007E-1,-3.6287785E-2,-5.4054897E-2,-1.2392961E-1,5.013784E-3,-6.422281E-2,3.2827202E-2,8.557987E-2,6.0049696E-3,1.5587997E-1,-1.6362171E-1,-3.8154602E-2,-7.073784E-3,-1.3792674E-2,-1.501069E-1,-9.47258E-2,-6.136894E-4,1.365757E-3,-8.786487E-3,-2.7053833E-3,1.5457535E-2,4.054451E-2,9.4795227E-4,9.298219E-3,1.6271835E-2,4.032898E-3,-1.7188942E-2,-4.460621E-3,1.3170242E-3,-7.0402147E-3,-1.3427735E-4,-1.9346237E-3,-1.5768087E-2,-3.3396722E-3,-1.3719177E-1,-5.9773635E-2,1.784277E-3,2.9582978E-4,1.1528969E-3,4.345894E-2,-1.6824417E-2,9.0351107E-4,-1.7847061E-3,-6.244914E-3,5.097437E-3,1.8952051E-3],"categories":[],"categories_nodes":[],"categories_segments":[],"categories_sizes":[],"default_left":[0,0,0,0,0,0,0,0,0,0,0,0,0,0,0,0,0,0,0,0,0,0,0,0,0,0,0,0,0,0,0,0,0,0,0,0,0,0,0,0,0,0,0,0,0,0,0,0,0,0,0,0,0,0,0,0,0,0,0,0,0,0,0,0,0,0,0,0,0],"id":11,"left_children":[1,3,5,7,9,11,13,15,-1,17,-1,19,21,-1,-1,23,25,-1,-1,27,29,-1,31,33,-1,35,37,39,41,43,45,-1,47,49,51,-1,53,55,57,-1,-1,-1,-1,59,61,-1,-1,-1,-1,-1,-1,-1,-1,-1,-1,-1,-1,63,65,-1,-1,-1,67,-1,-1,-1,-1,-1,-1],"loss_changes":[1.3226019E0,1.388815E-1,2.2421467E-1,6.664026E-2,2.8759348E-3,8.434147E-2,1.7172575E-2,3.3857703E-2,0E0,6.4513006E-6,0E0,4.5761853E-2,1.842317E-2,0E0,0E0,4.70185E-2,1.1122972E-2,0E0,0E0,6.8251314E-3,1.1050992E-2,0E0,2.014488E-3,1.6680986E-2,0E0,3.0544903E-3,5.6574047E-3,3.7296728E-4,1.1379234E-3,8.477997E-4,4.751757E-3,0E0,2.9199123E-3,2.1725E-3,5.892513E-3,0E0,1.8144632E-4,5.3414702E-3,1.4063701E-2,0E0,0E0,0E0,0E0,9.628374E-5,9.090826E-5,0E0,0E0,0E0,0E0,0E0,0E0,0E0,0E0,0E0,0E0,0E0,0E0,2.8764278E-2,7.212162E-6,0E0,0E0,0E0,1.3901014E-4,0E0,0E0,0E0,0E0,0E0,0E0],"parents":[2147483647,0,0,1,1,2,2,3,3,4,4,5,5,6,6,7,7,9,9,11,11,12,12,15,15,16,16,19,19,20,20,22,22,23,23,25,25,26,26,27,27,28,28,29,29,30,30,32,32,33,33,34,34,36,36,37,37,38,38,43,43,44,44,57,57,58,58,62,62],"right_children":[2,4,6,8,10,12,14,16,-1,18,-1,20,22,-1,-1,24,26,-1,-1,28,30,-1,32,34,-1,36,38,40,42,44,46,-1,48,50,52,-1,54,56,58,-1,-1,-1,-1,60,62,-1,-1,-1,-1,-1,-1,-1,-1,-1,-1,-1,-1,64,66,-1,-1,-1,68,-1,-1,-1,-1,-1,-1],"split_conditions":[1.964E3,2.793E1,2.01E3,2.619E1,1.953E3,2.568E1,2.598E1,1.918E3,6.973553E-3,1.903E3,5.8361692E-3,2.692E1,3.323E1,1.690874E-2,3.3318188E-2,1.917E3,1.925E3,2.9582978E-4,1.156807E-3,2.662E1,1.993E3,2.9582978E-4,3.337E1,1.915E3,-3.6287785E-2,2.479E1,2.665E1,1.969E3,1.976E3,1.977E3,3.296E1,6.0049696E-3,3.53E1,3.401E1,1.916E3,-7.073784E-3,1.921E3,2.568E1,3.31E1,-6.136894E-4,1.365757E-3,-8.786487E-3,-2.7053833E-3,2.772E1,2.514E1,9.4795227E-4,9.298219E-3,1.6271835E-2,4.032898E-3,-1.7188942E-2,-4.460621E-3,1.3170242E-3,-7.0402147E-3,-1.3427735E-4,-1.9346237E-3,-1.5768087E-2,-3.3396722E-3,2.524E1,1.929E3,1.784277E-3,2.9582978E-4,1.1528969E-3,1.987E3,-1.6824417E-2,9.0351107E-4,-1.7847061E-3,-6.244914E-3,5.097437E-3,1.8952051E-3],"split_indices":[0,2,0,1,0,1,1,0,0,0,0,2,3,0,0,0,0,0,0,2,0,0,3,0,0,1,2,0,0,0,3,0,3,3,0,0,0,1,3,0,0,0,0,2,1,0,0,0,0,0,0,0,0,0,0,0,0,1,0,0,0,0,0,0,0,0,0,0,0],"split_type":[0,0,0,0,0,0,0,0,0,0,0,0,0,0,0,0,0,0,0,0,0,0,0,0,0,0,0,0,0,0,0,0,0,0,0,0,0,0,0,0,0,0,0,0,0,0,0,0,0,0,0,0,0,0,0,0,0,0,0,0,0,0,0,0,0,0,0,0,0],"sum_hessian":[9.6E1,4.8E1,4.8E1,4.3E1,5E0,3.8E1,1E1,4.2E1,1E0,3E0,2E0,2.4E1,1.4E1,7E0,3E0,1.2E1,3E1,1E0,2E0,5E0,1.9E1,1E0,1.3E1,1.1E1,1E0,5E0,2.5E1,2E0,3E0,1E1,9E0,2E0,1.1E1,9E0,2E0,3E0,2E0,1.1E1,1.4E1,1E0,1E0,1E0,2E0,4E0,6E0,1E0,8E0,1E1,1E0,8E0,1E0,1E0,1E0,1E0,1E0,1E1,1E0,5E0,9E0,3E0,1E0,1E0,5E0,4E0,1E0,1E0,8E0,3E0,2E0],"tree_param":{"num_deleted":"0","num_feature":"4","num_nodes":"69","size_leaf_vector":"1"}},{"base_weights":[3.0283583E-4,-1.0617521E-1,1.067747E-1,-1.2281834E-1,3.357029E-2,7.089351E-2,2.2428304E-1,-1.2875593E-1,6.6248896E-3,9.502411E-3,5.44707E-3,2.5613595E-2,1.1262874E-1,2.4757788E-1,7.963753E-3,-1.7634259E-1,-1.0464681E-1,2.8104783E-4,1.079623E-3,-5.4937363E-2,4.306008E-2,4.567882E-2,1.380588E-1,1.4545365E-2,3.0018656E-2,-1.3358212E-1,-3.447342E-2,-1.4591336E-2,-8.6531006E-2,-1.7602285E-3,-8.34713E-3,2.6065974E-2,7.863274E-3,2.2003938E-2,6.9910684E-3,1.4278442E-2,3.8312913E-3,-1.4942436E-1,-3.6247253E-2,-2.0575047E-2,-9.497352E-2,2.5291444E-4,3.7510343E-2,2.8104783E-4,2.6099682E-3,-1.566103E-2,-4.2375564E-3,1.2511254E-3,-6.6882134E-3,4.8713684E-3,-4.8457147E-3,-5.0408125E-2,-1.13655634E-1,1.0082881E-3,-9.661357E-3,4.5241993E-2,1.6535282E-3,-1.2760163E-4,8.583069E-4,-5.934525E-3,-1.5731177E-3,-4.2682267E-3,-1.3777676E-1,2.8104783E-4,-1.7302514E-3,1.2974739E-3,4.9100495E-3,-1.5144849E-1,-5.539322E-3,-1.7159907E-2,-6.0664495E-3],"categories":[],"categories_nodes":[],"categories_segments":[],"categories_sizes":[],"default_left":[0,0,0,0,0,0,0,0,0,0,0,0,0,0,0,0,0,0,0,0,0,0,0,0,0,0,0,0,0,0,0,0,0,0,0,0,0,0,0,0,0,0,0,0,0,0,0,0,0,0,0,0,0,0,0,0,0,0,0,0,0,0,0,0,0,0,0,0,0,0,0],"id":12,"left_children":[1,3,5,7,9,11,13,15,-1,17,-1,19,21,23,-1,25,27,-1,-1,29,31,33,35,-1,-1,37,-1,-1,39,-1,-1,41,-1,43,-1,-1,-1,45,47,49,51,53,55,-1,-1,-1,-1,-1,-1,57,-1,59,61,-1,63,65,-1,-1,-1,-1,-1,-1,67,-1,-1,-1,-1,69,-1,-1,-1],"loss_changes":[1.1110176E0,1.1808735E-1,1.9070041E-1,5.792451E-2,2.500568E-3,7.0816144E-2,1.7347932E-2,3.087908E-2,0E0,4.290021E-6,0E0,3.0472226E-2,2.7744442E-2,4.690349E-3,0E0,4.755625E-2,1.054886E-2,0E0,0E0,2.7919812E-3,8.227296E-3,2.4774969E-3,1.1285543E-3,0E0,0E0,1.3087824E-2,0E0,0E0,1.1409923E-2,0E0,0E0,3.8308967E-3,0E0,3.1970488E-4,0E0,0E0,0E0,1.0559708E-3,5.317912E-3,3.0740504E-3,1.1754945E-2,5.8469904E-4,7.114569E-4,0E0,0E0,0E0,0E0,0E0,0E0,7.940388E-5,0E0,1.5457254E-3,1.8086776E-2,0E0,3.3452603E-4,1.09953806E-4,0E0,0E0,0E0,0E0,0E0,0E0,2.8740317E-3,0E0,0E0,0E0,0E0,4.224837E-3,0E0,0E0,0E0],"parents":[2147483647,0,0,1,1,2,2,3,3,4,4,5,5,6,6,7,7,9,9,11,11,12,12,13,13,15,15,16,16,19,19,20,20,21,21,22,22,25,25,28,28,31,31,33,33,37,37,38,38,39,39,40,40,41,41,42,42,49,49,51,51,52,52,54,54,55,55,62,62,67,67],"right_children":[2,4,6,8,10,12,14,16,-1,18,-1,20,22,24,-1,26,28,-1,-1,30,32,34,36,-1,-1,38,-1,-1,40,-1,-1,42,-1,44,-1,-1,-1,46,48,50,52,54,56,-1,-1,-1,-1,-1,-1,58,-1,60,62,-1,64,66,-1,-1,-1,-1,-1,-1,68,-1,-1,-1,-1,70,-1,-1,-1],"split_conditions":[1.964E3,2.793E1,2.01E3,2.619E1,1.953E3,2.772E1,2.02E3,1.918E3,6.6248896E-3,1.903E3,5.44707E-3,2.476E1,3.387E1,2.864E1,7.963753E-3,1.917E3,2.464E1,2.8104783E-4,1.079623E-3,2.678E1,2.585E1,2.552E1,3.53E1,1.4545365E-2,3.0018656E-2,1.915E3,-3.447342E-2,-1.4591336E-2,3.309E1,-1.7602285E-3,-8.34713E-3,3.34E1,7.863274E-3,1.968E3,6.9910684E-3,1.4278442E-2,3.8312913E-3,3.401E1,1.916E3,2.736E1,2.483E1,2.514E1,2.761E1,2.8104783E-4,2.6099682E-3,-1.566103E-2,-4.2375564E-3,1.2511254E-3,-6.6882134E-3,1.921E3,-4.8457147E-3,2.479E1,1.933E3,1.0082881E-3,1.983E3,1.985E3,1.6535282E-3,-1.2760163E-4,8.583069E-4,-5.934525E-3,-1.5731177E-3,-4.2682267E-3,2.568E1,2.8104783E-4,-1.7302514E-3,1.2974739E-3,4.9100495E-3,3.385E1,-5.539322E-3,-1.7159907E-2,-6.0664495E-3],"split_indices":[0,2,0,1,0,2,0,0,0,0,0,1,3,2,0,0,1,0,0,2,1,1,3,0,0,0,0,0,3,0,0,3,0,0,0,0,0,3,0,2,1,1,2,0,0,0,0,0,0,0,0,1,0,0,0,0,0,0,0,0,0,0,1,0,0,0,0,3,0,0,0],"split_type":[0,0,0,0,0,0,0,0,0,0,0,0,0,0,0,0,0,0,0,0,0,0,0,0,0,0,0,0,0,0,0,0,0,0,0,0,0,0,0,0,0,0,0,0,0,0,0,0,0,0,0,0,0,0,0,0,0,0,0,0,0,0,0,0,0,0,0,0,0,0,0],"sum_hessian":[9.6E1,4.8E1,4.8E1,4.3E1,5E0,3.8E1,1E1,4.2E1,1E0,3E0,2E0,1.9E1,1.9E1,8E0,2E0,1.2E1,3E1,1E0,2E0,3E0,1.6E1,6E0,1.3E1,4E0,4E0,1.1E1,1E0,7E0,2.3E1,2E0,1E0,1.2E1,4E0,4E0,2E0,1.2E1,1E0,9E0,2E0,3E0,2E1,4E0,8E0,1E0,3E0,8E0,1E0,1E0,1E0,2E0,1E0,7E0,1.3E1,2E0,2E0,5E0,3E0,1E0,1E0,5E0,2E0,4E0,9E0,1E0,1E0,1E0,4E0,7E0,2E0,5E0,2E0],"tree_param":{"num_deleted":"0","num_feature":"4","num_nodes":"71","size_leaf_vector":"1"}},{"base_weights":[6.722912E-5,-9.771316E-2,9.784625E-2,-1.178119E-1,4.7047934E-3,6.465467E-2,2.0663036E-1,-1.7744595E-1,-9.797801E-2,-1.0592652E-2,3.177452E-2,3.1458665E-2,1.1567103E-1,1.412766E-2,2.856803E-2,-8.7408885E-2,-3.2838378E-2,-6.413994E-2,-1.07994795E-1,-2.9882432E-3,4.4851575E-2,-3.6017418E-2,5.0128557E-2,2.670288E-4,1.2355178E-1,-1.04695E-2,8.1539154E-4,1.1885643E-3,-7.390785E-2,-1.3275968E-1,-7.21666E-2,8.892536E-3,6.959772E-3,4.9177804E-3,-5.7714462E-2,2.7240753E-2,7.029228E-2,5.080414E-3,1.3144271E-1,-7.83689E-3,-1.9109726E-3,-1.3889091E-2,-2.9592514E-3,-4.8003938E-2,-1.0849095E-2,2.670288E-4,1.0076523E-3,-4.9495697E-4,1.232624E-3,-7.929802E-3,-2.408727E-3,2.9430771E-2,2.670288E-4,8.501053E-4,7.6213414E-3,1.3677441E-2,3.639698E-3,-1.338768E-3,-5.0657513E-3,2.0522833E-2,4.3375017E-3,5.614281E-4,2.1850585E-3],"categories":[],"categories_nodes":[],"categories_segments":[],"categories_sizes":[],"default_left":[0,0,0,0,0,0,0,0,0,0,0,0,0,0,0,0,0,0,0,0,0,0,0,0,0,0,0,0,0,0,0,0,0,0,0,0,0,0,0,0,0,0,0,0,0,0,0,0,0,0,0,0,0,0,0,0,0,0,0,0,0,0,0],"id":13,"left_children":[1,3,5,7,9,11,13,15,17,-1,19,21,23,-1,-1,25,-1,27,29,-1,31,33,35,-1,37,-1,-1,-1,39,41,43,45,-1,47,49,51,53,-1,55,-1,-1,-1,-1,57,-1,-1,-1,-1,-1,-1,-1,59,-1,-1,-1,-1,-1,-1,-1,61,-1,-1,-1],"loss_changes":[9.369653E-1,1.0141939E-1,1.6356546E-1,3.1107962E-2,3.0318597E-2,6.2409163E-2,1.6468376E-2,9.360635E-2,4.2585135E-3,0E0,7.7906055E-3,3.3299774E-2,1.30280405E-2,0E0,0E0,1.2417037E-2,0E0,8.304555E-3,1.1713922E-2,0E0,5.610032E-3,5.612864E-3,7.3152557E-3,0E0,1.358822E-3,0E0,0E0,0E0,7.025078E-4,4.1128993E-3,5.3243227E-3,2.5609916E-6,0E0,2.803152E-4,9.931047E-4,5.1331986E-4,3.0108467E-3,0E0,1.1029094E-3,0E0,0E0,0E0,0E0,1.4852546E-4,0E0,0E0,0E0,0E0,0E0,0E0,0E0,3.5196636E-4,0E0,0E0,0E0,0E0,0E0,0E0,0E0,3.5683624E-5,0E0,0E0,0E0],"parents":[2147483647,0,0,1,1,2,2,3,3,4,4,5,5,6,6,7,7,8,8,10,10,11,11,12,12,15,15,17,17,18,18,20,20,21,21,22,22,24,24,28,28,29,29,30,30,31,31,33,33,34,34,35,35,36,36,38,38,43,43,51,51,59,59],"right_children":[2,4,6,8,10,12,14,16,18,-1,20,22,24,-1,-1,26,-1,28,30,-1,32,34,36,-1,38,-1,-1,-1,40,42,44,46,-1,48,50,52,54,-1,56,-1,-1,-1,-1,58,-1,-1,-1,-1,-1,-1,-1,60,-1,-1,-1,-1,-1,-1,-1,62,-1,-1,-1],"split_conditions":[1.964E3,2.784E1,2.01E3,3.255E1,3.31E1,2.568E1,2.598E1,3.25E1,3.325E1,-1.0592652E-2,2.475E1,2.692E1,3.323E1,1.412766E-2,2.856803E-2,1.947E3,-3.2838378E-2,2.613E1,2.673E1,-2.9882432E-3,1.953E3,2.662E1,1.993E3,2.670288E-4,3.337E1,-1.04695E-2,8.1539154E-4,1.1885643E-3,1.942E3,2.568E1,2.735E1,1.903E3,6.959772E-3,1.969E3,1.976E3,2.811E1,3.296E1,5.080414E-3,3.53E1,-7.83689E-3,-1.9109726E-3,-1.3889091E-2,-2.9592514E-3,2.686E1,-1.0849095E-2,2.670288E-4,1.0076523E-3,-4.9495697E-4,1.232624E-3,-7.929802E-3,-2.408727E-3,2.788E1,2.670288E-4,8.501053E-4,7.6213414E-3,1.3677441E-2,3.639698E-3,-1.338768E-3,-5.0657513E-3,2.501E1,4.3375017E-3,5.614281E-4,2.1850585E-3],"split_indices":[0,2,0,3,3,1,1,3,3,0,1,2,3,0,0,0,0,2,2,0,0,2,0,0,3,0,0,0,0,1,2,0,0,0,0,2,3,0,3,0,0,0,0,2,0,0,0,0,0,0,0,2,0,0,0,0,0,0,0,1,0,0,0],"split_type":[0,0,0,0,0,0,0,0,0,0,0,0,0,0,0,0,0,0,0,0,0,0,0,0,0,0,0,0,0,0,0,0,0,0,0,0,0,0,0,0,0,0,0,0,0,0,0,0,0,0,0,0,0,0,0,0,0,0,0,0,0,0,0],"sum_hessian":[9.6E1,4.8E1,4.8E1,4E1,8E0,3.8E1,1E1,8E0,3.2E1,1E0,7E0,2.4E1,1.4E1,7E0,3E0,6E0,2E0,9E0,2.3E1,1E0,6E0,5E0,1.9E1,1E0,1.3E1,5E0,1E0,1E0,8E0,1.2E1,1.1E1,3E0,3E0,2E0,3E0,1E1,9E0,2E0,1.1E1,7E0,1E0,1.1E1,1E0,8E0,3E0,1E0,2E0,1E0,1E0,1E0,2E0,9E0,1E0,1E0,8E0,1E1,1E0,1E0,7E0,7E0,2E0,1E0,6E0],"tree_param":{"num_deleted":"0","num_feature":"4","num_nodes":"63","size_leaf_vector":"1"}},{"base_weights":[-1.3449758E-4,-8.9788556E-2,8.95223E-2,-1.0389831E-1,2.8647741E-2,5.892969E-2,1.8984865E-1,-1.0907998E-1,5.9456825E-3,8.322239E-3,4.6199164E-3,2.8561478E-2,1.0561473E-1,1.2787223E-2,2.6633931E-2,-1.5209433E-1,-8.7523E-2,2.5367737E-4,9.405136E-4,-3.401534E-2,4.5906447E-2,2.5367737E-4,1.1279624E-1,-1.1292251E-1,-3.1107808E-2,-3.745079E-2,-9.571186E-2,4.6723685E-3,-5.4527283E-2,2.5184631E-2,6.41098E-2,5.722475E-2,1.2274985E-1,-1.2644672E-1,-3.0200958E-2,-5.2879336E-3,-4.395803E-3,-3.607273E-2,-1.0192249E-1,-4.7016144E-4,1.1710167E-3,-7.5332643E-3,-2.2481284E-3,2.719574E-2,2.5367737E-4,4.038157E-2,8.960676E-3,6.455231E-3,1.7621041E-3,1.3312871E-2,5.069669E-3,-1.3211335E-2,-3.7723542E-3,1.1291504E-3,-5.6592943E-3,2.706528E-4,-9.300232E-4,-5.326144E-3,7.7466964E-4,-1.5223655E-2,-8.331761E-2,1.8813372E-2,4.0483475E-3,4.8419572E-2,1.3524373E-3,-1.13640405E-1,-4.466305E-2,5.3339003E-4,1.9977025E-3,8.075714E-4,5.648661E-3,-5.570698E-3,-1.3051088E-1,-1.228714E-3,-4.689513E-2,-1.4289188E-2,-2.8112412E-3,-1.27182E-3,-4.9577476E-3],"categories":[],"categories_nodes":[],"categories_segments":[],"categories_sizes":[],"default_left":[0,0,0,0,0,0,0,0,0,0,0,0,0,0,0,0,0,0,0,0,0,0,0,0,0,0,0,0,0,0,0,0,0,0,0,0,0,0,0,0,0,0,0,0,0,0,0,0,0,0,0,0,0,0,0,0,0,0,0,0,0,0,0,0,0,0,0,0,0,0,0,0,0,0,0,0,0,0,0],"id":14,"left_children":[1,3,5,7,9,11,13,15,-1,17,-1,19,21,-1,-1,23,25,-1,-1,27,29,-1,31,33,-1,35,37,39,41,43,45,47,49,51,53,-1,55,57,59,-1,-1,-1,-1,61,-1,63,-1,-1,-1,-1,-1,-1,-1,-1,-1,-1,-1,-1,-1,-1,65,67,-1,69,-1,71,73,-1,-1,-1,-1,-1,75,-1,77,-1,-1,-1,-1],"loss_changes":[7.877334E-1,8.486068E-2,1.3920525E-1,4.3729454E-2,1.7559687E-3,5.2275404E-2,1.8089354E-2,2.6560485E-2,0E0,1.2015516E-6,0E0,2.8696345E-2,1.0817692E-2,0E0,0E0,4.5832157E-2,9.126574E-3,0E0,0E0,5.0161323E-3,5.929552E-3,0E0,7.195771E-4,9.606123E-3,0E0,2.8274944E-3,5.9536844E-3,2.529733E-4,9.733392E-4,4.3203076E-4,2.4315156E-3,2.331566E-5,1.4769286E-3,4.3824315E-5,3.9242245E-3,0E0,1.2966996E-4,3.4253974E-3,8.84603E-3,0E0,0E0,0E0,0E0,3.521964E-4,0E0,8.563027E-4,0E0,0E0,0E0,0E0,0E0,0E0,0E0,0E0,0E0,0E0,0E0,0E0,0E0,0E0,1.7194659E-2,1.89282E-5,0E0,1.1711074E-3,0E0,2.5032759E-3,1.4645047E-4,0E0,0E0,0E0,0E0,0E0,4.8575476E-3,0E0,1.945328E-4,0E0,0E0,0E0,0E0],"parents":[2147483647,0,0,1,1,2,2,3,3,4,4,5,5,6,6,7,7,9,9,11,11,12,12,15,15,16,16,19,19,20,20,22,22,23,23,25,25,26,26,27,27,28,28,29,29,30,30,31,31,32,32,33,33,34,34,36,36,37,37,38,38,43,43,45,45,60,60,61,61,63,63,65,65,66,66,72,72,74,74],"right_children":[2,4,6,8,10,12,14,16,-1,18,-1,20,22,-1,-1,24,26,-1,-1,28,30,-1,32,34,-1,36,38,40,42,44,46,48,50,52,54,-1,56,58,60,-1,-1,-1,-1,62,-1,64,-1,-1,-1,-1,-1,-1,-1,-1,-1,-1,-1,-1,-1,-1,66,68,-1,70,-1,72,74,-1,-1,-1,-1,-1,76,-1,78,-1,-1,-1,-1],"split_conditions":[1.964E3,2.793E1,2.01E3,2.619E1,1.953E3,2.568E1,3.467E1,1.918E3,5.9456825E-3,1.903E3,4.6199164E-3,2.692E1,3.323E1,1.2787223E-2,2.6633931E-2,1.917E3,1.925E3,2.5367737E-4,9.405136E-4,2.662E1,1.993E3,2.5367737E-4,3.366E1,1.915E3,-3.1107808E-2,2.479E1,3.247E1,1.969E3,1.976E3,2.811E1,3.406E1,2.589E1,3.48E1,3.401E1,1.916E3,-5.2879336E-3,1.921E3,1.936E3,3.31E1,-4.7016144E-4,1.1710167E-3,-7.5332643E-3,-2.2481284E-3,2.788E1,2.5367737E-4,3.386E1,8.960676E-3,6.455231E-3,1.7621041E-3,1.3312871E-2,5.069669E-3,-1.3211335E-2,-3.7723542E-3,1.1291504E-3,-5.6592943E-3,2.706528E-4,-9.300232E-4,-5.326144E-3,7.7466964E-4,-1.5223655E-2,2.665E1,2.501E1,4.0483475E-3,3.296E1,1.3524373E-3,3.322E1,1.929E3,5.3339003E-4,1.9977025E-3,8.075714E-4,5.648661E-3,-5.570698E-3,2.568E1,-1.228714E-3,2.686E1,-1.4289188E-2,-2.8112412E-3,-1.27182E-3,-4.9577476E-3],"split_indices":[0,2,0,1,0,1,3,0,0,0,0,2,3,0,0,0,0,0,0,2,0,0,3,0,0,1,3,0,0,2,3,1,3,3,0,0,0,0,3,0,0,0,0,2,0,3,0,0,0,0,0,0,0,0,0,0,0,0,0,0,2,1,0,3,0,3,0,0,0,0,0,0,1,0,2,0,0,0,0],"split_type":[0,0,0,0,0,0,0,0,0,0,0,0,0,0,0,0,0,0,0,0,0,0,0,0,0,0,0,0,0,0,0,0,0,0,0,0,0,0,0,0,0,0,0,0,0,0,0,0,0,0,0,0,0,0,0,0,0,0,0,0,0,0,0,0,0,0,0,0,0,0,0,0,0,0,0,0,0,0,0],"sum_hessian":[9.6E1,4.8E1,4.8E1,4.3E1,5E0,3.8E1,1E1,4.2E1,1E0,3E0,2E0,2.4E1,1.4E1,7E0,3E0,1.2E1,3E1,1E0,2E0,5E0,1.9E1,1E0,1.3E1,1.1E1,1E0,5E0,2.5E1,2E0,3E0,1E1,9E0,3E0,1E1,9E0,2E0,3E0,2E0,3E0,2.2E1,1E0,1E0,1E0,2E0,9E0,1E0,6E0,3E0,2E0,1E0,8E0,2E0,8E0,1E0,1E0,1E0,1E0,1E0,2E0,1E0,4E0,1.8E1,7E0,2E0,4E0,2E0,9E0,9E0,1E0,6E0,1E0,3E0,3E0,6E0,1E0,8E0,5E0,1E0,1E0,7E0],"tree_param":{"num_deleted":"0","num_feature":"4","num_nodes":"79","size_leaf_vector":"1"}},{"base_weights":[-2.8500115E-4,-8.278325E-2,8.2219064E-2,-9.980504E-2,3.958596E-3,5.409769E-2,1.7444767E-1,-1.5354961E-1,-8.212303E-2,-9.301758E-3,2.7707815E-2,1.8323516E-2,8.716698E-2,1.1599541E-1,2.4774028E-2,-7.268633E-2,-2.9104743E-2,-5.318203E-2,-9.075999E-2,-2.5909424E-3,3.9068766E-2,-4.669857E-2,3.2544978E-2,3.4599576E-2,1.0722446E-2,1.2324715E-1,3.2616616E-3,-8.725389E-3,7.359505E-4,1.0726929E-3,-6.1474904E-2,-1.1729794E-2,-6.701736E-2,7.788658E-4,6.0581686E-3,-1.4554341E-2,-7.156563E-3,-2.0132065E-3,4.0094104E-2,1.5969848E-2,5.4115932E-3,3.621483E-3,1.3171673E-2,-6.5317154E-3,-1.5368462E-3,-1.0417461E-2,-8.029922E-2,-4.4670104E-4,-1.7364502E-3,-7.7991486E-3,7.67231E-4,2.8203098E-2,6.277084E-2,2.409935E-4,1.8757343E-3,-1.1100769E-4,-1.3149898E-3,-9.6549444E-2,-4.795742E-2,2.409935E-4,-1.4108658E-3,1.6216006E-2,3.9344407E-3,7.2534564E-3,1.6739846E-3,-1.0373878E-2,-2.6706697E-3,-5.2716066E-3,-1.20821E-3,5.5516564E-4,1.9371415E-3],"categories":[],"categories_nodes":[],"categories_segments":[],"categories_sizes":[],"default_left":[0,0,0,0,0,0,0,0,0,0,0,0,0,0,0,0,0,0,0,0,0,0,0,0,0,0,0,0,0,0,0,0,0,0,0,0,0,0,0,0,0,0,0,0,0,0,0,0,0,0,0,0,0,0,0,0,0,0,0,0,0,0,0,0,0,0,0,0,0,0,0],"id":15,"left_children":[1,3,5,7,9,11,13,15,17,-1,19,21,23,25,-1,27,-1,29,31,-1,33,35,37,39,-1,41,-1,-1,-1,-1,43,-1,45,-1,-1,47,-1,49,51,53,-1,-1,-1,-1,-1,55,57,-1,-1,59,-1,61,63,-1,-1,-1,-1,65,67,-1,-1,69,-1,-1,-1,-1,-1,-1,-1,-1,-1],"loss_changes":[6.6703117E-1,7.2743624E-2,1.1764893E-1,2.6352823E-2,2.330529E-2,4.454083E-2,1.838857E-2,7.891157E-2,3.4219623E-3,0E0,5.885392E-3,2.0013984E-2,1.737748E-2,8.172244E-4,0E0,8.804649E-3,0E0,5.9593283E-3,7.2609335E-3,0E0,4.2386344E-3,2.155738E-3,4.5157485E-3,1.6808677E-3,0E0,3.8979203E-4,0E0,0E0,0E0,0E0,5.905442E-4,0E0,1.0439761E-2,0E0,0E0,7.473631E-6,0E0,2.8399684E-4,2.0047575E-3,1.4378701E-4,0E0,0E0,0E0,0E0,0E0,8.712997E-5,1.67647E-3,0E0,0E0,2.2724386E-4,0E0,8.31062E-4,5.835183E-4,0E0,0E0,0E0,0E0,7.443428E-4,3.8738735E-4,0E0,0E0,1.2800936E-4,0E0,0E0,0E0,0E0,0E0,0E0,0E0,0E0,0E0],"parents":[2147483647,0,0,1,1,2,2,3,3,4,4,5,5,6,6,7,7,8,8,10,10,11,11,12,12,13,13,15,15,17,17,18,18,20,20,21,21,22,22,23,23,25,25,30,30,32,32,35,35,37,37,38,38,39,39,45,45,46,46,49,49,51,51,52,52,57,57,58,58,61,61],"right_children":[2,4,6,8,10,12,14,16,18,-1,20,22,24,26,-1,28,-1,30,32,-1,34,36,38,40,-1,42,-1,-1,-1,-1,44,-1,46,-1,-1,48,-1,50,52,54,-1,-1,-1,-1,-1,56,58,-1,-1,60,-1,62,64,-1,-1,-1,-1,66,68,-1,-1,70,-1,-1,-1,-1,-1,-1,-1,-1,-1],"split_conditions":[1.964E3,2.784E1,2.01E3,3.255E1,3.31E1,2.772E1,2.598E1,3.25E1,3.325E1,-9.301758E-3,2.475E1,2.476E1,3.387E1,2.59E1,2.4774028E-2,1.947E3,-2.9104743E-2,2.613E1,3.373E1,-2.5909424E-3,1.953E3,2.678E1,3.323E1,2.552E1,1.0722446E-2,2.501E1,3.2616616E-3,-8.725389E-3,7.359505E-4,1.0726929E-3,1.942E3,-1.1729794E-2,3.382E1,7.788658E-4,6.0581686E-3,1.969E3,-7.156563E-3,1.984E3,2.588E1,1.968E3,5.4115932E-3,3.621483E-3,1.3171673E-2,-6.5317154E-3,-1.5368462E-3,2.481E1,2.654E1,-4.4670104E-4,-1.7364502E-3,1.983E3,7.67231E-4,1.992E3,1.98E3,2.409935E-4,1.8757343E-3,-1.1100769E-4,-1.3149898E-3,2.568E1,2.492E1,2.409935E-4,-1.4108658E-3,3.376E1,3.9344407E-3,7.2534564E-3,1.6739846E-3,-1.0373878E-2,-2.6706697E-3,-5.2716066E-3,-1.20821E-3,5.5516564E-4,1.9371415E-3],"split_indices":[0,2,0,3,3,2,1,3,3,0,1,1,3,1,0,0,0,2,3,0,0,2,3,1,0,1,0,0,0,0,0,0,3,0,0,0,0,0,1,0,0,0,0,0,0,1,2,0,0,0,0,0,0,0,0,0,0,1,1,0,0,3,0,0,0,0,0,0,0,0,0],"split_type":[0,0,0,0,0,0,0,0,0,0,0,0,0,0,0,0,0,0,0,0,0,0,0,0,0,0,0,0,0,0,0,0,0,0,0,0,0,0,0,0,0,0,0,0,0,0,0,0,0,0,0,0,0,0,0,0,0,0,0,0,0,0,0,0,0,0,0,0,0,0,0],"sum_hessian":[9.6E1,4.8E1,4.8E1,4E1,8E0,3.8E1,1E1,8E0,3.2E1,1E0,7E0,1.9E1,1.9E1,7E0,3E0,6E0,2E0,9E0,2.3E1,1E0,6E0,3E0,1.6E1,6E0,1.3E1,6E0,1E0,5E0,1E0,1E0,8E0,9E0,1.4E1,3E0,3E0,2E0,1E0,3E0,1.3E1,4E0,2E0,1E0,5E0,7E0,1E0,3E0,1.1E1,1E0,1E0,2E0,1E0,1E1,3E0,1E0,3E0,1E0,2E0,6E0,5E0,1E0,1E0,6E0,4E0,2E0,1E0,5E0,1E0,4E0,1E0,2E0,4E0],"tree_param":{"num_deleted":"0","num_feature":"4","num_nodes":"71","size_leaf_vector":"1"}},{"base_weights":[-3.919503E-4,-7.617464E-2,7.5398736E-2,-8.815046E-2,2.434381E-2,4.9299534E-2,1.6107784E-1,-9.2686765E-2,5.3455355E-3,7.2050095E-3,3.9080936E-3,2.3263397E-2,8.940646E-2,1.06140375E-2,2.3068333E-2,-1.3132022E-1,-7.349574E-2,2.020836E-4,8.259456E-4,-3.0658403E-2,3.827677E-2,2.2897721E-4,9.5465526E-2,-9.543482E-2,-2.8097248E-2,-3.0543327E-2,-8.058108E-2,-9.595108E-3,-6.798744E-3,2.096315E-2,5.3494073E-2,5.384598E-2,1.0672875E-1,-1.0698033E-2,-2.513822E-2,-4.4644834E-3,-1.5602112E-3,-2.9424667E-2,-8.597432E-2,-1.7071724E-2,1.0155678E-3,2.260151E-2,2.2897721E-4,3.3652168E-2,7.4843885E-3,6.76988E-3,2.20445E-3,1.1834788E-1,4.0168124E-3,1.0190964E-3,-4.7898293E-3,5.837441E-4,-8.177757E-4,-4.3893815E-3,6.991387E-4,-1.2932396E-1,-7.004156E-2,-4.2438507E-4,-1.9933067E-3,1.5657187E-3,3.3585865E-3,4.2058945E-2,8.423488E-4,4.8359553E-3,1.336174E-2,-3.893566E-3,-1.4218712E-2,-9.735775E-2,-3.5721205E-2,7.2889327E-4,4.8929215E-3,-4.7878742E-2,-1.1172322E-1,-5.8078766E-4,-3.8399592E-2,-5.4105124E-3,-1.45998E-3,-1.2188657E-2,-2.5371553E-3,-1.1478424E-3,-4.032993E-3],"categories":[],"categories_nodes":[],"categories_segments":[],"categories_sizes":[],"default_left":[0,0,0,0,0,0,0,0,0,0,0,0,0,0,0,0,0,0,0,0,0,0,0,0,0,0,0,0,0,0,0,0,0,0,0,0,0,0,0,0,0,0,0,0,0,0,0,0,0,0,0,0,0,0,0,0,0,0,0,0,0,0,0,0,0,0,0,0,0,0,0,0,0,0,0,0,0,0,0,0,0],"id":16,"left_children":[1,3,5,7,9,11,13,15,-1,17,-1,19,21,-1,-1,23,25,-1,-1,27,29,-1,31,33,-1,35,37,39,-1,41,43,45,47,-1,49,-1,51,53,55,57,-1,59,-1,61,-1,-1,-1,63,-1,-1,-1,-1,-1,-1,-1,65,67,-1,-1,-1,-1,69,-1,-1,-1,-1,-1,71,73,-1,-1,75,77,-1,79,-1,-1,-1,-1,-1,-1],"loss_changes":[5.628748E-1,6.1131656E-2,1.0163063E-1,3.321877E-2,1.2338816E-3,3.8645044E-2,1.7578632E-2,2.2229403E-2,0E0,5.1747193E-6,0E0,2.1412203E-2,7.6990947E-3,0E0,0E0,4.299973E-2,6.973088E-3,0E0,0E0,4.0652887E-3,4.1479263E-3,0E0,8.158684E-4,7.050015E-3,0E0,2.3825779E-3,4.6435893E-3,9.117201E-4,0E0,2.847789E-4,1.7175488E-3,7.1031414E-4,2.979964E-3,0E0,2.9004142E-3,0E0,1.9460007E-4,2.4145155E-3,6.827578E-3,6.222678E-5,0E0,2.369294E-4,0E0,1.1303602E-3,0E0,0E0,0E0,2.0878166E-3,0E0,0E0,0E0,0E0,0E0,0E0,0E0,2.7724355E-4,1.433479E-2,0E0,0E0,0E0,0E0,8.377554E-4,0E0,0E0,0E0,0E0,0E0,1.7587245E-3,5.7817437E-4,0E0,0E0,3.8906E-5,3.0509084E-3,0E0,4.7795475E-6,0E0,0E0,0E0,0E0,0E0,0E0],"parents":[2147483647,0,0,1,1,2,2,3,3,4,4,5,5,6,6,7,7,9,9,11,11,12,12,15,15,16,16,19,19,20,20,22,22,23,23,25,25,26,26,27,27,29,29,30,30,31,31,32,32,34,34,36,36,37,37,38,38,39,39,41,41,43,43,47,47,55,55,56,56,61,61,67,67,68,68,71,71,72,72,74,74],"right_children":[2,4,6,8,10,12,14,16,-1,18,-1,20,22,-1,-1,24,26,-1,-1,28,30,-1,32,34,-1,36,38,40,-1,42,44,46,48,-1,50,-1,52,54,56,58,-1,60,-1,62,-1,-1,-1,64,-1,-1,-1,-1,-1,-1,-1,66,68,-1,-1,-1,-1,70,-1,-1,-1,-1,-1,72,74,-1,-1,76,78,-1,80,-1,-1,-1,-1,-1,-1],"split_conditions":[1.964E3,2.793E1,2.01E3,2.619E1,1.953E3,2.568E1,3.467E1,1.918E3,5.3455355E-3,1.903E3,3.9080936E-3,2.692E1,3.323E1,1.06140375E-2,2.3068333E-2,1.917E3,1.925E3,2.020836E-4,8.259456E-4,2.689E1,1.993E3,2.2897721E-4,2.76E1,1.915E3,-2.8097248E-2,2.479E1,3.247E1,1.984E3,-6.798744E-3,2.811E1,3.406E1,1.98E3,3.455E1,-1.0698033E-2,1.916E3,-4.4644834E-3,1.921E3,1.936E3,3.31E1,1.969E3,1.0155678E-3,2.788E1,2.2897721E-4,3.386E1,7.4843885E-3,6.76988E-3,2.20445E-3,3.402E1,4.0168124E-3,1.0190964E-3,-4.7898293E-3,5.837441E-4,-8.177757E-4,-4.3893815E-3,6.991387E-4,2.45E1,2.665E1,-4.2438507E-4,-1.9933067E-3,1.5657187E-3,3.3585865E-3,3.296E1,8.423488E-4,4.8359553E-3,1.336174E-2,-3.893566E-3,-1.4218712E-2,3.322E1,1.929E3,7.2889327E-4,4.8929215E-3,1.942E3,2.568E1,-5.8078766E-4,2.686E1,-5.4105124E-3,-1.45998E-3,-1.2188657E-2,-2.5371553E-3,-1.1478424E-3,-4.032993E-3],"split_indices":[0,2,0,1,0,1,3,0,0,0,0,2,3,0,0,0,0,0,0,2,0,0,2,0,0,1,3,0,0,2,3,0,3,0,0,0,0,0,3,0,0,2,0,3,0,0,0,3,0,0,0,0,0,0,0,1,2,0,0,0,0,3,0,0,0,0,0,3,0,0,0,0,1,0,2,0,0,0,0,0,0],"split_type":[0,0,0,0,0,0,0,0,0,0,0,0,0,0,0,0,0,0,0,0,0,0,0,0,0,0,0,0,0,0,0,0,0,0,0,0,0,0,0,0,0,0,0,0,0,0,0,0,0,0,0,0,0,0,0,0,0,0,0,0,0,0,0,0,0,0,0,0,0,0,0,0,0,0,0,0,0,0,0,0,0],"sum_hessian":[9.6E1,4.8E1,4.8E1,4.3E1,5E0,3.8E1,1E1,4.2E1,1E0,3E0,2E0,2.4E1,1.4E1,7E0,3E0,1.2E1,3E1,1E0,2E0,5E0,1.9E1,1E0,1.3E1,1.1E1,1E0,5E0,2.5E1,4E0,1E0,1E1,9E0,4E0,9E0,9E0,2E0,3E0,2E0,3E0,2.2E1,3E0,1E0,9E0,1E0,6E0,3E0,2E0,2E0,7E0,2E0,1E0,1E0,1E0,1E0,2E0,1E0,4E0,1.8E1,1E0,2E0,7E0,2E0,4E0,2E0,2E0,5E0,1E0,3E0,9E0,9E0,1E0,3E0,3E0,6E0,1E0,8E0,2E0,1E0,5E0,1E0,1E0,7E0],"tree_param":{"num_deleted":"0","num_feature":"4","num_nodes":"81","size_leaf_vector":"1"}},{"base_weights":[-4.5735075E-4,-7.031534E-2,6.9409974E-2,-8.477313E-2,3.3607483E-3,3.868266E-2,1.303674E-1,-1.3390668E-1,-6.880419E-2,-8.125687E-3,2.4095058E-2,-4.2060375E-2,4.7853284E-2,5.892499E-2,1.574844E-1,-6.179183E-2,-2.5753913E-2,-9.861501E-2,-5.9958868E-2,-2.2598268E-3,3.399386E-2,-1.3021469E-2,-6.458855E-3,2.8860092E-2,7.5520836E-2,2.1753312E-4,6.9839857E-3,1.1554846E-2,2.3079745E-2,-7.4304263E-3,6.641388E-4,-1.1680317E-2,-4.1492465E-3,-7.244716E-2,-3.7270546E-2,6.7415237E-3,5.2747726E-3,-4.0321352E-4,-1.5500069E-3,1.8432379E-2,5.6456756E-2,1.6061784E-3,7.946604E-3,-2.9853549E-2,-9.296608E-2,-4.898898E-3,-2.1901812E-2,1.9197464E-4,7.708868E-4,-1.6531944E-3,2.319468E-2,6.317091E-3,1.4800072E-3,3.7293434E-3,-5.5973055E-3,-9.7442055E-3,-2.4103166E-3,-6.386757E-3,-3.1941414E-3,-6.8206787E-3,6.9246296E-4,1.0778904E-3,2.5841524E-3,1.0151545E-3,-7.7686313E-4,9.6130374E-5,-9.1565447E-4,2.1753312E-4,-1.2406349E-3],"categories":[],"categories_nodes":[],"categories_segments":[],"categories_sizes":[],"default_left":[0,0,0,0,0,0,0,0,0,0,0,0,0,0,0,0,0,0,0,0,0,0,0,0,0,0,0,0,0,0,0,0,0,0,0,0,0,0,0,0,0,0,0,0,0,0,0,0,0,0,0,0,0,0,0,0,0,0,0,0,0,0,0,0,0,0,0,0,0],"id":17,"left_children":[1,3,5,7,9,11,13,15,17,-1,19,21,23,25,27,29,-1,31,33,-1,35,37,-1,39,41,-1,-1,-1,-1,-1,-1,-1,-1,43,45,47,-1,-1,-1,49,51,-1,-1,53,55,-1,57,-1,-1,59,61,-1,-1,63,-1,-1,-1,65,-1,67,-1,-1,-1,-1,-1,-1,-1,-1,-1],"loss_changes":[4.783173E-1,5.2479386E-2,8.67369E-2,2.2955716E-2,1.774828E-2,2.7188513E-2,2.1717101E-2,6.4327806E-2,2.788797E-3,0E0,4.465865E-3,1.775736E-3,1.4110811E-2,3.5645664E-3,7.15068E-3,6.4873453E-3,0E0,1.3872758E-3,5.23334E-3,0E0,3.2220073E-3,4.3445034E-6,0E0,4.7147665E-3,1.5385672E-3,0E0,0E0,0E0,0E0,0E0,0E0,0E0,0E0,1.2082204E-2,1.0882225E-3,3.8582075E-6,0E0,0E0,0E0,1.5688022E-3,4.6351552E-4,0E0,0E0,6.348922E-3,1.0418445E-3,0E0,8.863525E-4,0E0,0E0,2.2453374E-4,1.4867075E-4,0E0,0E0,3.7423286E-4,0E0,0E0,0E0,9.02125E-5,0E0,1.7773415E-4,0E0,0E0,0E0,0E0,0E0,0E0,0E0,0E0,0E0],"parents":[2147483647,0,0,1,1,2,2,3,3,4,4,5,5,6,6,7,7,8,8,10,10,11,11,12,12,13,13,14,14,15,15,17,17,18,18,20,20,21,21,23,23,24,24,33,33,34,34,35,35,39,39,40,40,43,43,44,44,46,46,49,49,50,50,53,53,57,57,59,59],"right_children":[2,4,6,8,10,12,14,16,18,-1,20,22,24,26,28,30,-1,32,34,-1,36,38,-1,40,42,-1,-1,-1,-1,-1,-1,-1,-1,44,46,48,-1,-1,-1,50,52,-1,-1,54,56,-1,58,-1,-1,60,62,-1,-1,64,-1,-1,-1,66,-1,68,-1,-1,-1,-1,-1,-1,-1,-1,-1],"split_conditions":[1.964E3,2.784E1,2.817E1,3.255E1,3.31E1,2.476E1,3.402E1,3.25E1,1.913E3,-8.125687E-3,2.475E1,2.678E1,1.998E3,1.968E3,2.918E1,1.947E3,-2.5753913E-2,3.368E1,2.685E1,-2.2598268E-3,1.953E3,1.969E3,-6.458855E-3,2.585E1,2.709E1,2.1753312E-4,6.9839857E-3,1.1554846E-2,2.3079745E-2,-7.4304263E-3,6.641388E-4,-1.1680317E-2,-4.1492465E-3,1.924E3,2.479E1,1.903E3,5.2747726E-3,-4.0321352E-4,-1.5500069E-3,3.323E1,1.981E3,1.6061784E-3,7.946604E-3,2.519E1,2.568E1,-4.898898E-3,2.497E1,1.9197464E-4,7.708868E-4,1.984E3,1.977E3,6.317091E-3,1.4800072E-3,1.921E3,-5.5973055E-3,-9.7442055E-3,-2.4103166E-3,2.481E1,-3.1941414E-3,1.983E3,6.9246296E-4,1.0778904E-3,2.5841524E-3,1.0151545E-3,-7.7686313E-4,9.6130374E-5,-9.1565447E-4,2.1753312E-4,-1.2406349E-3],"split_indices":[0,2,2,3,3,1,3,3,0,0,1,2,0,0,2,0,0,3,2,0,0,0,0,1,2,0,0,0,0,0,0,0,0,0,1,0,0,0,0,3,0,0,0,1,1,0,1,0,0,0,0,0,0,0,0,0,0,1,0,0,0,0,0,0,0,0,0,0,0],"split_type":[0,0,0,0,0,0,0,0,0,0,0,0,0,0,0,0,0,0,0,0,0,0,0,0,0,0,0,0,0,0,0,0,0,0,0,0,0,0,0,0,0,0,0,0,0,0,0,0,0,0,0,0,0,0,0,0,0,0,0,0,0,0,0,0,0,0,0,0,0],"sum_hessian":[9.6E1,4.8E1,4.8E1,4E1,8E0,3.3E1,1.5E1,8E0,3.2E1,1E0,7E0,3E0,3E1,5E0,1E1,6E0,2E0,5E0,2.7E1,1E0,6E0,2E0,1E0,1.9E1,1.1E1,1E0,4E0,8E0,2E0,5E0,1E0,3E0,2E0,1.6E1,1.1E1,3E0,3E0,1E0,1E0,1.5E1,4E0,1E0,1E1,6E0,1E1,5E0,6E0,1E0,2E0,3E0,1.2E1,3E0,1E0,3E0,3E0,9E0,1E0,3E0,3E0,2E0,1E0,3E0,9E0,2E0,1E0,1E0,2E0,1E0,1E0],"tree_param":{"num_deleted":"0","num_feature":"4","num_nodes":"69","size_leaf_vector":"1"}},{"base_weights":[-6.673557E-4,-6.48943E-2,6.357321E-2,-7.5089365E-2,2.0685196E-2,4.1187823E-2,1.3716021E-1,-7.907495E-2,4.8145293E-3,6.3080788E-3,3.2959622E-3,1.8649979E-2,7.600505E-2,8.8323355E-2,2.0054389E-2,-1.2412919E-1,-6.523029E-2,1.8234253E-4,7.195155E-4,-2.7781805E-2,3.1647015E-2,2.0666122E-4,8.1138745E-2,9.473937E-2,2.1705627E-3,-5.6578774E-2,-2.4037044E-2,-5.20401E-2,-7.9347864E-2,-8.794403E-3,-6.1359406E-3,1.7611764E-2,4.392109E-2,8.4473245E-2,1.889515E-3,1.1030845E-2,3.7211103E-3,-6.811174E-3,6.3095096E-4,-7.606803E-2,-3.1402294E-2,-8.975896E-2,-4.0573883E-3,-1.5171051E-2,8.3560945E-4,1.9817565E-2,5.123774E-4,2.710506E-2,6.236887E-3,1.1442528E-1,5.844731E-3,-8.360318E-3,-3.313001E-3,-5.8994293E-3,-4.208141E-2,-1.0274434E-2,-4.1348457E-2,-3.8309098E-4,-1.7674128E-3,1.2783868E-2,2.9623667E-3,3.5336304E-2,4.351298E-3,1.2729073E-2,3.1481744E-3,9.475072E-4,-1.9307456E-3,-7.5315475E-3,-2.1826608E-2,-4.8926673E-3,-9.306908E-4,3.46756E-4,1.375866E-3,6.5784453E-4,4.088116E-3,7.175446E-4,-6.484985E-5,-5.952835E-3,-3.2243729E-3,9.1362E-5,-8.546193E-4],"categories":[],"categories_nodes":[],"categories_segments":[],"categories_sizes":[],"default_left":[0,0,0,0,0,0,0,0,0,0,0,0,0,0,0,0,0,0,0,0,0,0,0,0,0,0,0,0,0,0,0,0,0,0,0,0,0,0,0,0,0,0,0,0,0,0,0,0,0,0,0,0,0,0,0,0,0,0,0,0,0,0,0,0,0,0,0,0,0,0,0,0,0,0,0,0,0,0,0,0,0],"id":18,"left_children":[1,3,5,7,9,11,13,15,-1,17,-1,19,21,23,-1,25,27,-1,-1,29,31,-1,33,35,-1,37,-1,39,41,43,-1,45,47,49,-1,-1,-1,-1,-1,51,53,55,-1,57,-1,59,-1,61,-1,63,-1,-1,-1,65,67,-1,69,-1,-1,71,-1,73,75,-1,-1,-1,-1,-1,77,-1,-1,-1,-1,-1,-1,-1,-1,79,-1,-1,-1],"loss_changes":[4.043452E-1,4.430516E-2,7.506707E-2,2.5418192E-2,8.509131E-4,2.9186018E-2,1.6337335E-2,1.872474E-2,0E0,2.79308E-6,0E0,1.59661E-2,5.525969E-3,1.3629794E-3,0E0,5.7069436E-2,2.388209E-3,0E0,0E0,3.2856888E-3,2.6718657E-3,0E0,1.309596E-3,2.164945E-3,0E0,5.5067707E-3,0E0,8.024853E-3,2.4133176E-3,6.735842E-4,0E0,2.014651E-4,1.4116727E-3,3.4460276E-3,0E0,0E0,0E0,0E0,0E0,1.4212355E-4,3.2922663E-3,2.6666075E-3,0E0,4.5833003E-5,0E0,2.4205353E-4,0E0,1.1572838E-3,0E0,1.3281927E-3,0E0,0E0,0E0,1.213648E-3,4.4144634E-3,0E0,5.15915E-4,0E0,0E0,1.5861122E-5,0E0,5.2835606E-4,4.7013757E-5,0E0,0E0,0E0,0E0,0E0,9.6557173E-4,0E0,0E0,0E0,0E0,0E0,0E0,0E0,0E0,7.9036676E-5,0E0,0E0,0E0],"parents":[2147483647,0,0,1,1,2,2,3,3,4,4,5,5,6,6,7,7,9,9,11,11,12,12,13,13,15,15,16,16,19,19,20,20,22,22,23,23,25,25,27,27,28,28,29,29,31,31,32,32,33,33,39,39,40,40,41,41,43,43,45,45,47,47,49,49,53,53,54,54,56,56,59,59,61,61,62,62,68,68,77,77],"right_children":[2,4,6,8,10,12,14,16,-1,18,-1,20,22,24,-1,26,28,-1,-1,30,32,-1,34,36,-1,38,-1,40,42,44,-1,46,48,50,-1,-1,-1,-1,-1,52,54,56,-1,58,-1,60,-1,62,-1,64,-1,-1,-1,66,68,-1,70,-1,-1,72,-1,74,76,-1,-1,-1,-1,-1,78,-1,-1,-1,-1,-1,-1,-1,-1,80,-1,-1,-1],"split_conditions":[1.964E3,2.793E1,2.01E3,2.619E1,1.953E3,2.568E1,2.598E1,3.255E1,4.8145293E-3,1.903E3,3.2959622E-3,2.692E1,3.323E1,2.59E1,2.0054389E-2,3.25E1,2.503E1,1.8234253E-4,7.195155E-4,2.689E1,1.993E3,2.0666122E-4,3.53E1,2.016E3,2.1705627E-3,1.947E3,-2.4037044E-2,2.474E1,2.568E1,1.984E3,-6.1359406E-3,2.544E1,3.406E1,2.577E1,1.889515E-3,1.1030845E-2,3.7211103E-3,-6.811174E-3,6.3095096E-4,2.718E1,3.325E1,3.385E1,-4.0573883E-3,1.969E3,8.3560945E-4,2.788E1,5.123774E-4,3.386E1,6.236887E-3,2.828E1,5.844731E-3,-8.360318E-3,-3.313001E-3,1.921E3,2.655E1,-1.0274434E-2,1.939E3,-3.8309098E-4,-1.7674128E-3,2.501E1,2.9623667E-3,3.296E1,1.997E3,1.2729073E-2,3.1481744E-3,9.475072E-4,-1.9307456E-3,-7.5315475E-3,3.381E1,-4.8926673E-3,-9.306908E-4,3.46756E-4,1.375866E-3,6.5784453E-4,4.088116E-3,7.175446E-4,-6.484985E-5,2.481E1,-3.2243729E-3,9.1362E-5,-8.546193E-4],"split_indices":[0,2,0,1,0,1,1,3,0,0,0,2,3,1,0,3,1,0,0,2,0,0,3,0,0,0,0,1,1,0,0,1,3,1,0,0,0,0,0,2,3,3,0,0,0,2,0,3,0,2,0,0,0,0,2,0,0,0,0,1,0,3,0,0,0,0,0,0,3,0,0,0,0,0,0,0,0,1,0,0,0],"split_type":[0,0,0,0,0,0,0,0,0,0,0,0,0,0,0,0,0,0,0,0,0,0,0,0,0,0,0,0,0,0,0,0,0,0,0,0,0,0,0,0,0,0,0,0,0,0,0,0,0,0,0,0,0,0,0,0,0,0,0,0,0,0,0,0,0,0,0,0,0,0,0,0,0,0,0,0,0,0,0,0,0],"sum_hessian":[9.6E1,4.8E1,4.8E1,4.3E1,5E0,3.8E1,1E1,4.2E1,1E0,3E0,2E0,2.4E1,1.4E1,7E0,3E0,8E0,3.4E1,1E0,2E0,5E0,1.9E1,1E0,1.3E1,6E0,1E0,6E0,2E0,2E1,1.4E1,4E0,1E0,1E1,9E0,1.2E1,1E0,4E0,2E0,5E0,1E0,8E0,1.2E1,1E1,4E0,3E0,1E0,8E0,2E0,6E0,3E0,4E0,8E0,6E0,2E0,4E0,8E0,7E0,3E0,1E0,2E0,6E0,2E0,4E0,2E0,3E0,1E0,2E0,2E0,2E0,6E0,2E0,1E0,1E0,5E0,1E0,3E0,1E0,1E0,3E0,3E0,1E0,2E0],"tree_param":{"num_deleted":"0","num_feature":"4","num_nodes":"81","size_leaf_vector":"1"}},{"base_weights":[-5.526985E-4,-5.974244E-2,5.864832E-2,-6.91654E-2,1.9316355E-2,3.2164965E-2,1.1125994E-1,-1.0658396E-1,-5.1802695E-2,5.902767E-3,3.0762355E-3,-3.7885666E-2,4.0166177E-2,5.01283E-2,1.3448992E-1,-7.512776E-2,-2.4202919E-2,-5.6424603E-2,4.573822E-3,1.7318726E-4,6.7157747E-4,-1.1653264E-2,-5.829144E-3,2.4441719E-2,6.302643E-2,1.8100739E-4,5.9429933E-3,9.702916E-2,2.0204227E-2,-2.6316643E-2,-8.8474065E-2,-2.1824837E-2,-6.2238988E-2,-3.6392212E-4,-1.3840676E-3,1.5647411E-2,4.769516E-2,2.162234E-3,6.914501E-3,1.0194969E-2,2.8832436E-3,-4.0889103E-3,8.7003707E-4,-9.837777E-2,-3.587405E-3,-3.3897876E-3,1.5474955E-3,-2.0607948E-2,-6.6773124E-2,-1.3446808E-3,1.96721E-2,5.404997E-3,1.1137963E-3,-1.058658E-1,-2.6724816E-3,4.5642853E-4,-2.243042E-4,-3.147316E-3,5.993843E-4,-9.990654E-2,-5.453943E-2,-5.9591928E-3,6.2494277E-4,1.106294E-2,2.3669958E-2,-3.1985284E-3,-1.1424485E-2,-2.9868127E-3,-1.0994911E-2,-7.579251E-2,-2.7832413E-2,1.9636155E-4,-1.0902405E-3,1.4555931E-2,2.7179718E-3,2.7500153E-2,8.1195834E-4,-3.3966064E-2,-8.8865824E-2,-1.582686E-2,-3.6672592E-2,3.293991E-4,1.7211915E-3,3.856659E-4,2.2029877E-5,1.2070339E-3,3.2197477E-3,-3.993289E-3,-8.0327987E-4,-9.672037E-3,-2.0869256E-3,-2.050829E-3,-4.3093364E-4,-8.841515E-4,-4.1419985E-3],"categories":[],"categories_nodes":[],"categories_segments":[],"categories_sizes":[],"default_left":[0,0,0,0,0,0,0,0,0,0,0,0,0,0,0,0,0,0,0,0,0,0,0,0,0,0,0,0,0,0,0,0,0,0,0,0,0,0,0,0,0,0,0,0,0,0,0,0,0,0,0,0,0,0,0,0,0,0,0,0,0,0,0,0,0,0,0,0,0,0,0,0,0,0,0,0,0,0,0,0,0,0,0,0,0,0,0,0,0,0,0,0,0,0,0],"id":19,"left_children":[1,3,5,7,9,11,13,15,17,19,-1,21,23,25,27,29,-1,31,-1,-1,-1,33,-1,35,37,-1,-1,39,-1,41,43,45,47,-1,-1,49,51,-1,-1,-1,-1,-1,-1,53,-1,-1,55,57,59,61,63,-1,-1,65,-1,-1,-1,-1,-1,67,69,71,-1,73,75,-1,-1,-1,-1,77,79,-1,-1,81,83,85,-1,87,89,91,93,-1,-1,-1,-1,-1,-1,-1,-1,-1,-1,-1,-1,-1,-1],"loss_changes":[3.4340084E-1,3.7839457E-2,6.46946E-2,2.3064926E-2,7.396084E-4,2.057838E-2,1.5979648E-2,3.7204593E-2,1.7007165E-2,1.9330037E-6,0E0,1.461884E-3,9.602945E-3,2.5890572E-3,8.232191E-3,5.489029E-3,0E0,4.878111E-3,0E0,0E0,0E0,2.2207096E-6,0E0,3.343652E-3,1.5449338E-3,0E0,0E0,8.062273E-5,0E0,2.3968867E-3,1.159206E-3,1.7455074E-3,3.5317168E-3,0E0,0E0,1.120659E-3,5.5956375E-4,0E0,0E0,0E0,0E0,0E0,0E0,9.2653185E-4,0E0,0E0,4.454365E-5,1.3447813E-3,3.874071E-3,1.7741397E-4,1.855772E-4,0E0,0E0,6.0133636E-5,0E0,0E0,0E0,0E0,0E0,2.32853E-4,8.675031E-3,1.389005E-4,0E0,1.3533077E-4,2.531982E-4,0E0,0E0,0E0,0E0,2.4496801E-3,4.808996E-4,0E0,0E0,6.295019E-5,7.682589E-6,4.6238303E-5,0E0,2.9818388E-4,1.7200969E-3,2.3513369E-4,2.944097E-4,0E0,0E0,0E0,0E0,0E0,0E0,0E0,0E0,0E0,0E0,0E0,0E0,0E0,0E0],"parents":[2147483647,0,0,1,1,2,2,3,3,4,4,5,5,6,6,7,7,8,8,9,9,11,11,12,12,13,13,14,14,15,15,17,17,21,21,23,23,24,24,27,27,29,29,30,30,31,31,32,32,35,35,36,36,43,43,46,46,47,47,48,48,49,49,50,50,53,53,59,59,60,60,61,61,63,63,64,64,69,69,70,70,73,73,74,74,75,75,77,77,78,78,79,79,80,80],"right_children":[2,4,6,8,10,12,14,16,18,20,-1,22,24,26,28,30,-1,32,-1,-1,-1,34,-1,36,38,-1,-1,40,-1,42,44,46,48,-1,-1,50,52,-1,-1,-1,-1,-1,-1,54,-1,-1,56,58,60,62,64,-1,-1,66,-1,-1,-1,-1,-1,68,70,72,-1,74,76,-1,-1,-1,-1,78,80,-1,-1,82,84,86,-1,88,90,92,94,-1,-1,-1,-1,-1,-1,-1,-1,-1,-1,-1,-1,-1,-1],"split_conditions":[1.964E3,2.793E1,2.817E1,1.918E3,1.953E3,2.476E1,3.402E1,1.917E3,2.619E1,1.903E3,3.0762355E-3,2.678E1,1.998E3,1.968E3,2.918E1,2.613E1,-2.4202919E-2,1.925E3,4.573822E-3,1.7318726E-4,6.7157747E-4,1.969E3,-5.829144E-3,2.585E1,2.723E1,1.8100739E-4,5.9429933E-3,2.02E3,2.0204227E-2,1.908E3,3.373E1,2.479E1,3.247E1,-3.6392212E-4,-1.3840676E-3,3.323E1,1.981E3,2.162234E-3,6.914501E-3,1.0194969E-2,2.8832436E-3,-4.0889103E-3,8.7003707E-4,2.562E1,-3.587405E-3,-3.3897876E-3,1.921E3,1.936E3,3.31E1,1.984E3,3.383E1,5.404997E-3,1.1137963E-3,1.904E3,-2.6724816E-3,4.5642853E-4,-2.243042E-4,-3.147316E-3,5.993843E-4,2.45E1,2.665E1,1.983E3,6.2494277E-4,3.365E1,2.544E1,-3.1985284E-3,-1.1424485E-2,-2.9868127E-3,-1.0994911E-2,3.322E1,1.949E3,1.9636155E-4,-1.0902405E-3,1.977E3,1.982E3,1.985E3,8.1195834E-4,1.942E3,2.568E1,1.94E3,2.686E1,3.293991E-4,1.7211915E-3,3.856659E-4,2.2029877E-5,1.2070339E-3,3.2197477E-3,-3.993289E-3,-8.0327987E-4,-9.672037E-3,-2.0869256E-3,-2.050829E-3,-4.3093364E-4,-8.841515E-4,-4.1419985E-3],"split_indices":[0,2,2,0,0,1,3,0,1,0,0,2,0,0,2,2,0,0,0,0,0,0,0,1,2,0,0,0,0,0,3,1,3,0,0,3,0,0,0,0,0,0,0,1,0,0,0,0,3,0,3,0,0,0,0,0,0,0,0,1,2,0,0,3,1,0,0,0,0,3,0,0,0,0,0,0,0,0,1,0,2,0,0,0,0,0,0,0,0,0,0,0,0,0,0],"split_type":[0,0,0,0,0,0,0,0,0,0,0,0,0,0,0,0,0,0,0,0,0,0,0,0,0,0,0,0,0,0,0,0,0,0,0,0,0,0,0,0,0,0,0,0,0,0,0,0,0,0,0,0,0,0,0,0,0,0,0,0,0,0,0,0,0,0,0,0,0,0,0,0,0,0,0,0,0,0,0,0,0,0,0,0,0,0,0,0,0,0,0,0,0,0,0],"sum_hessian":[9.6E1,4.8E1,4.8E1,4.3E1,5E0,3.3E1,1.5E1,1.2E1,3.1E1,3E0,2E0,3E0,3E1,5E0,1E1,1.1E1,1E0,3E1,1E0,1E0,2E0,2E0,1E0,1.9E1,1.1E1,1E0,4E0,8E0,2E0,3E0,8E0,5E0,2.5E1,1E0,1E0,1.5E1,4E0,2E0,9E0,7E0,1E0,2E0,1E0,6E0,2E0,3E0,2E0,3E0,2.2E1,3E0,1.2E1,3E0,1E0,5E0,1E0,1E0,1E0,2E0,1E0,4E0,1.8E1,2E0,1E0,5E0,7E0,1E0,4E0,1E0,3E0,9E0,9E0,1E0,1E0,3E0,2E0,5E0,2E0,3E0,6E0,5E0,4E0,1E0,2E0,1E0,1E0,2E0,3E0,2E0,1E0,5E0,1E0,3E0,2E0,1E0,3E0],"tree_param":{"num_deleted":"0","num_feature":"4","num_nodes":"95","size_leaf_vector":"1"}},{"base_weights":[-7.9331937E-4,-5.5473365E-2,5.3902917E-2,-6.69424E-2,2.9381646E-3,3.445278E-2,1.1796223E-1,-9.964107E-2,-4.997602E-2,-6.655884E-3,1.9945145E-2,1.5198136E-2,6.4247005E-2,8.1318535E-2,1.8857257E-2,-6.962315E-2,-2.2992803E-2,-7.214069E-2,-3.9644502E-2,4.098574E-3,4.4989903E-3,-2.5001526E-2,2.6498128E-2,1.865387E-4,6.856959E-2,9.106773E-3,3.146426E-3,-7.882996E-2,-1.572609E-2,-8.623733E-3,-3.6484718E-3,-5.8301076E-2,-2.4819238E-2,1.2032318E-2,-1.7785073E-3,-7.851029E-3,-5.537701E-3,1.7424038E-2,4.0860858E-2,7.4059166E-2,2.3754756E-3,-9.081105E-2,-3.8155557E-3,8.2654954E-4,-3.185463E-3,-1.9478798E-2,-7.446575E-2,4.3363572E-4,-2.7395543E-2,1.7489752E-3,2.5641124E-4,-1.348114E-2,7.3347095E-4,1.9390987E-2,-4.073143E-4,9.6797943E-4,5.1397323E-3,9.9508286E-2,4.8896074E-2,-1.0451736E-1,-3.769684E-3,-2.1305085E-4,-2.4551393E-3,-7.631302E-4,-8.630638E-3,-3.597336E-2,-1.9586138E-2,-3.4570694E-4,-1.5670141E-3,9.574072E-3,2.643776E-2,1.1091757E-2,2.6935579E-3,1.1255265E-3,5.266544E-3,-3.038597E-3,-1.1545372E-2,-4.0767193E-2,-8.39901E-4,-2.3458004E-2,5.6943897E-4,1.1100133E-2,2.0885467E-5,5.9366226E-4,2.8865179E-2,-1.0916711E-3,-4.707845E-3,-1.6829172E-3,-3.043588E-3,3.23232E-4,1.422596E-2,3.2073974E-3,6.410599E-4,-3.60775E-4,1.083374E-4,3.6640168E-4,1.6525269E-3],"categories":[],"categories_nodes":[],"categories_segments":[],"categories_sizes":[],"default_left":[0,0,0,0,0,0,0,0,0,0,0,0,0,0,0,0,0,0,0,0,0,0,0,0,0,0,0,0,0,0,0,0,0,0,0,0,0,0,0,0,0,0,0,0,0,0,0,0,0,0,0,0,0,0,0,0,0,0,0,0,0,0,0,0,0,0,0,0,0,0,0,0,0,0,0,0,0,0,0,0,0,0,0,0,0,0,0,0,0,0,0,0,0,0,0,0,0],"id":20,"left_children":[1,3,5,7,9,11,13,15,17,-1,19,21,23,25,-1,27,-1,29,31,33,-1,35,37,-1,39,-1,-1,41,43,-1,-1,45,47,49,-1,51,-1,53,55,57,-1,59,-1,-1,-1,61,63,-1,65,-1,-1,67,-1,69,-1,-1,-1,71,73,75,-1,-1,-1,-1,-1,77,79,-1,-1,81,83,-1,-1,-1,-1,-1,-1,85,-1,87,-1,89,-1,-1,91,-1,-1,93,-1,-1,95,-1,-1,-1,-1,-1,-1],"loss_changes":[2.9309708E-1,3.3022955E-2,5.698803E-2,1.7766237E-2,1.1964933E-2,2.1396976E-2,1.3127223E-2,3.4833938E-2,3.780879E-3,0E0,2.9905937E-3,1.2018889E-2,3.916841E-3,1.5089661E-3,0E0,4.714947E-3,0E0,8.746907E-4,4.6379603E-3,1.2557112E-3,0E0,2.6909614E-3,1.8946128E-3,0E0,1.6849488E-3,0E0,0E0,1.4082938E-3,1.4241419E-3,0E0,0E0,4.197443E-3,1.1703875E-3,2.1351484E-4,0E0,5.263672E-4,0E0,6.70956E-4,1.8022517E-3,2.8189793E-3,0E0,1.1560246E-3,0E0,0E0,0E0,2.9969623E-4,4.0895417E-3,0E0,1.6626064E-4,0E0,0E0,3.3598044E-5,0E0,6.4619165E-4,0E0,0E0,0E0,1.1523813E-3,5.422924E-4,5.454682E-4,0E0,0E0,0E0,0E0,0E0,3.1852955E-4,1.0145241E-3,0E0,0E0,9.77249E-5,1.7699227E-4,0E0,0E0,0E0,0E0,0E0,0E0,2.3963489E-4,0E0,1.1643297E-3,0E0,1.01577665E-4,0E0,0E0,2.2669975E-4,0E0,0E0,1.9882486E-5,0E0,0E0,3.659178E-5,0E0,0E0,0E0,0E0,0E0,0E0],"parents":[2147483647,0,0,1,1,2,2,3,3,4,4,5,5,6,6,7,7,8,8,10,10,11,11,12,12,13,13,15,15,17,17,18,18,19,19,21,21,22,22,24,24,27,27,28,28,31,31,32,32,33,33,35,35,37,37,38,38,39,39,41,41,45,45,46,46,48,48,51,51,53,53,57,57,58,58,59,59,65,65,66,66,69,69,70,70,77,77,79,79,81,81,84,84,87,87,90,90],"right_children":[2,4,6,8,10,12,14,16,18,-1,20,22,24,26,-1,28,-1,30,32,34,-1,36,38,-1,40,-1,-1,42,44,-1,-1,46,48,50,-1,52,-1,54,56,58,-1,60,-1,-1,-1,62,64,-1,66,-1,-1,68,-1,70,-1,-1,-1,72,74,76,-1,-1,-1,-1,-1,78,80,-1,-1,82,84,-1,-1,-1,-1,-1,-1,86,-1,88,-1,90,-1,-1,92,-1,-1,94,-1,-1,96,-1,-1,-1,-1,-1,-1],"split_conditions":[1.964E3,2.784E1,2.01E3,1.918E3,3.31E1,2.568E1,2.918E1,1.917E3,2.464E1,-6.655884E-3,1.955E3,2.692E1,3.323E1,2.02E3,1.8857257E-2,1.915E3,-2.2992803E-2,1.934E3,2.655E1,1.954E3,4.4989903E-3,2.689E1,3.406E1,1.865387E-4,3.48E1,9.106773E-3,3.146426E-3,3.368E1,1.916E3,-8.623733E-3,-3.6484718E-3,1.933E3,1.921E3,2.566E1,-1.7785073E-3,1.984E3,-5.537701E-3,3.391E1,1.972E3,2.577E1,2.3754756E-3,2.506E1,-3.8155557E-3,8.2654954E-4,-3.185463E-3,1.924E3,2.479E1,4.3363572E-4,2.698E1,1.7489752E-3,2.5641124E-4,1.969E3,7.3347095E-4,1.992E3,-4.073143E-4,9.6797943E-4,5.1397323E-3,2.828E1,2.588E1,1.904E3,-3.769684E-3,-2.1305085E-4,-2.4551393E-3,-7.631302E-4,-8.630638E-3,1.95E3,2.524E1,-3.4570694E-4,-1.5670141E-3,1.987E3,3.296E1,1.1091757E-2,2.6935579E-3,1.1255265E-3,5.266544E-3,-3.038597E-3,-1.1545372E-2,1.94E3,-8.39901E-4,2.708E1,5.6943897E-4,1.977E3,2.0885467E-5,5.9366226E-4,3.386E1,-1.0916711E-3,-4.707845E-3,1.929E3,-3.043588E-3,3.23232E-4,2.514E1,3.2073974E-3,6.410599E-4,-3.60775E-4,1.083374E-4,3.6640168E-4,1.6525269E-3],"split_indices":[0,2,0,0,3,1,2,0,1,0,0,2,3,0,0,0,0,0,2,0,0,2,3,0,3,0,0,3,0,0,0,0,0,1,0,0,0,3,0,1,0,1,0,0,0,0,1,0,2,0,0,0,0,0,0,0,0,2,1,0,0,0,0,0,0,0,1,0,0,0,3,0,0,0,0,0,0,0,0,2,0,0,0,0,3,0,0,0,0,0,1,0,0,0,0,0,0],"split_type":[0,0,0,0,0,0,0,0,0,0,0,0,0,0,0,0,0,0,0,0,0,0,0,0,0,0,0,0,0,0,0,0,0,0,0,0,0,0,0,0,0,0,0,0,0,0,0,0,0,0,0,0,0,0,0,0,0,0,0,0,0,0,0,0,0,0,0,0,0,0,0,0,0,0,0,0,0,0,0,0,0,0,0,0,0,0,0,0,0,0,0,0,0,0,0,0,0],"sum_hessian":[9.6E1,4.8E1,4.8E1,4E1,8E0,3.8E1,1E1,1.2E1,2.8E1,1E0,7E0,2.4E1,1.4E1,8E0,2E0,1.1E1,1E0,7E0,2.1E1,5E0,2E0,5E0,1.9E1,1E0,1.3E1,6E0,2E0,9E0,2E0,4E0,3E0,8E0,1.3E1,4E0,1E0,4E0,1E0,1.3E1,6E0,1.1E1,2E0,6E0,3E0,1E0,1E0,3E0,5E0,1E0,1.2E1,2E0,2E0,3E0,1E0,1.2E1,1E0,2E0,4E0,4E0,7E0,4E0,2E0,1E0,2E0,1E0,4E0,4E0,8E0,1E0,2E0,6E0,6E0,3E0,1E0,1E0,6E0,1E0,3E0,3E0,1E0,7E0,1E0,5E0,1E0,1E0,5E0,1E0,2E0,2E0,5E0,2E0,3E0,4E0,1E0,1E0,1E0,1E0,2E0],"tree_param":{"num_deleted":"0","num_feature":"4","num_nodes":"97","size_leaf_vector":"1"}},{"base_weights":[-9.5200294E-4,-5.1614255E-2,4.972968E-2,-7.196604E-2,-2.105159E-2,2.6760157E-2,9.5431805E-2,-8.593921E-2,-3.6823083E-2,-3.915863E-2,2.0756586E-2,-3.4128666E-2,3.3753548E-2,7.652715E-2,1.895008E-2,-5.6652427E-2,-1.624691E-1,-4.84799E-3,-7.217884E-3,-3.294468E-3,-4.7850132E-2,-1.6896249E-3,2.9848099E-2,-1.0432561E-3,-5.260849E-3,1.6195297E-2,4.726062E-2,1.5583039E-4,8.177076E-2,-6.9397494E-2,-2.38444E-2,-2.0426115E-2,-6.6520693E-3,-2.1362305E-3,4.6176912E-4,1.0290146E-4,-5.078634E-4,-5.7690213E-3,-2.8395018E-2,5.5999757E-4,4.057217E-3,-1.080513E-3,2.0604292E-2,9.0344745E-4,5.175514E-2,8.487452E-3,2.0710945E-3,-8.769716E-2,-2.9898454E-2,4.272461E-3,-5.3385418E-2,-3.0882263E-3,-7.979393E-4,-5.200704E-3,5.64003E-4,2.5200367E-3,9.129715E-3,6.967545E-4,5.4456573E-3,-2.4220466E-3,-9.423987E-3,-3.374815E-3,-7.249832E-4,7.981618E-4,-3.4275054E-4,-1.5773773E-3,-6.4304355E-3,1.7719269E-4,-9.5729827E-4,1.9836427E-5,1.1312962E-2,3.4809113E-4,1.2763342E-3],"categories":[],"categories_nodes":[],"categories_segments":[],"categories_sizes":[],"default_left":[0,0,0,0,0,0,0,0,0,0,0,0,0,0,0,0,0,0,0,0,0,0,0,0,0,0,0,0,0,0,0,0,0,0,0,0,0,0,0,0,0,0,0,0,0,0,0,0,0,0,0,0,0,0,0,0,0,0,0,0,0,0,0,0,0,0,0,0,0,0,0,0,0],"id":21,"left_children":[1,3,5,7,9,11,13,15,17,19,21,23,25,27,-1,29,31,-1,33,35,37,-1,39,-1,-1,41,43,-1,45,47,49,-1,-1,-1,-1,-1,-1,-1,51,-1,-1,53,55,-1,57,-1,-1,59,61,63,65,-1,-1,67,-1,-1,69,-1,-1,-1,-1,-1,-1,-1,-1,-1,-1,-1,-1,-1,71,-1,-1],"loss_changes":[2.5162864E-1,2.8963238E-2,4.8884265E-2,1.1076167E-2,1.671027E-2,1.5629822E-2,1.3951525E-2,3.562203E-2,3.1011011E-3,4.518062E-3,2.9005695E-3,1.2027584E-3,6.5865815E-3,5.769193E-3,0E0,5.0355047E-3,6.461814E-3,0E0,7.682739E-4,3.6081226E-5,6.5916404E-4,0E0,1.3330276E-3,0E0,0E0,1.1647977E-3,2.4531595E-3,0E0,8.953735E-4,5.3290054E-3,5.2116904E-3,0E0,0E0,0E0,0E0,0E0,0E0,0E0,5.82505E-5,0E0,0E0,1.4009181E-4,4.0278398E-4,0E0,1.4354289E-3,0E0,0E0,6.246343E-4,1.9128341E-4,1.4159858E-4,2.1771621E-4,0E0,0E0,1.0842147E-4,0E0,0E0,9.5252646E-5,0E0,0E0,0E0,0E0,0E0,0E0,0E0,0E0,0E0,0E0,0E0,0E0,0E0,1.0097283E-6,0E0,0E0],"parents":[2147483647,0,0,1,1,2,2,3,3,4,4,5,5,6,6,7,7,8,8,9,9,10,10,11,11,12,12,13,13,15,15,16,16,18,18,19,19,20,20,22,22,25,25,26,26,28,28,29,29,30,30,38,38,41,41,42,42,44,44,47,47,48,48,49,49,50,50,53,53,56,56,70,70],"right_children":[2,4,6,8,10,12,14,16,18,20,22,24,26,28,-1,30,32,-1,34,36,38,-1,40,-1,-1,42,44,-1,46,48,50,-1,-1,-1,-1,-1,-1,-1,52,-1,-1,54,56,-1,58,-1,-1,60,62,64,66,-1,-1,68,-1,-1,70,-1,-1,-1,-1,-1,-1,-1,-1,-1,-1,-1,-1,-1,72,-1,-1],"split_conditions":[1.964E3,3.373E1,2.817E1,2.52E1,2.776E1,2.476E1,2.66E1,2.503E1,2.698E1,3.382E1,2.475E1,2.678E1,3.391E1,1.968E3,1.895008E-2,2.491E1,1.918E3,-4.84799E-3,2.524E1,2.481E1,2.654E1,-1.6896249E-3,1.953E3,-1.0432561E-3,-5.260849E-3,3.323E1,1.972E3,1.5583039E-4,2.931E1,1.934E3,1.929E3,-2.0426115E-2,-6.6520693E-3,-2.1362305E-3,4.6176912E-4,1.0290146E-4,-5.078634E-4,-5.7690213E-3,2.492E1,5.5999757E-4,4.057217E-3,1.984E3,2.761E1,9.0344745E-4,2.493E1,8.487452E-3,2.0710945E-3,2.421E1,1.947E3,1.921E3,1.93E3,-3.0882263E-3,-7.979393E-4,1.983E3,5.64003E-4,2.5200367E-3,2.769E1,6.967545E-4,5.4456573E-3,-2.4220466E-3,-9.423987E-3,-3.374815E-3,-7.249832E-4,7.981618E-4,-3.4275054E-4,-1.5773773E-3,-6.4304355E-3,1.7719269E-4,-9.5729827E-4,1.9836427E-5,2.514E1,3.4809113E-4,1.2763342E-3],"split_indices":[0,3,2,1,2,1,1,1,2,3,1,2,3,0,0,1,0,0,1,1,2,0,0,0,0,3,0,0,2,0,0,0,0,0,0,0,0,0,1,0,0,0,2,0,1,0,0,1,0,0,0,0,0,0,0,0,2,0,0,0,0,0,0,0,0,0,0,0,0,0,1,0,0],"split_type":[0,0,0,0,0,0,0,0,0,0,0,0,0,0,0,0,0,0,0,0,0,0,0,0,0,0,0,0,0,0,0,0,0,0,0,0,0,0,0,0,0,0,0,0,0,0,0,0,0,0,0,0,0,0,0,0,0,0,0,0,0,0,0,0,0,0,0,0,0,0,0,0,0],"sum_hessian":[9.6E1,4.8E1,4.8E1,2.8E1,2E1,3.3E1,1.5E1,1.9E1,9E0,1.4E1,6E0,3E0,3E1,1.4E1,1E0,1.5E1,4E0,6E0,3E0,3E0,1.1E1,1E0,5E0,2E0,1E0,1.4E1,1.6E1,1E0,1.3E1,1E1,5E0,2E0,2E0,1E0,2E0,1E0,2E0,6E0,5E0,2E0,3E0,3E0,1.1E1,2E0,1.4E1,1.2E1,1E0,6E0,4E0,3E0,2E0,4E0,1E0,2E0,1E0,7E0,4E0,1E0,1.3E1,1E0,5E0,3E0,1E0,2E0,1E0,1E0,1E0,1E0,1E0,1E0,3E0,1E0,2E0],"tree_param":{"num_deleted":"0","num_feature":"4","num_nodes":"73","size_leaf_vector":"1"}},{"base_weights":[-1.1647411E-3,-4.7763553E-2,4.545784E-2,-6.6738196E-2,-1.928602E-2,2.8504495E-2,1.0143263E-1,-7.987404E-2,-3.3792686E-2,-3.591334E-2,1.90991E-2,1.1941986E-2,5.4208376E-2,6.835493E-2,1.6685486E-2,-6.216019E-2,-2.0821858E-2,-4.432406E-3,-6.9146156E-3,-3.0665398E-3,-4.3869495E-2,-1.6051292E-3,2.7632713E-2,-3.229189E-2,1.9441692E-2,2.6660284E-2,6.5316394E-2,7.728986E-3,2.472178E-3,-1.6197205E-2,-6.9765925E-2,-2.029419E-3,4.3099723E-3,9.775162E-5,-4.740397E-4,-5.2744728E-2,-2.6203474E-2,5.226135E-4,3.7529469E-3,-9.737015E-3,-4.9978257E-3,4.8525333E-3,2.5926463E-2,1.6832352E-4,3.1319044E-3,7.5072765E-2,1.7527262E-3,7.453919E-4,-2.6565553E-3,-7.349866E-2,-6.887436E-4,1.2865067E-4,5.1784515E-4,-5.629762E-3,-1.5713692E-3,-2.8411865E-3,-7.5807574E-4,-2.7627946E-4,-1.1842728E-3,-9.0942386E-4,8.144106E-3,9.0293883E-4,3.125E-2,9.699392E-3,4.2521287E-2,-3.0290603E-3,-8.177646E-2,9.438515E-3,1.8882753E-5,1.8878391E-2,4.2320252E-3,7.9698564E-4,4.916668E-3,-6.0675092E-2,-1.0881043E-2,2.1254223E-4,1.2563706E-3,2.4222055E-2,-6.591797E-4,-6.744552E-2,-3.255844E-4,2.9196262E-3,9.515762E-4,-8.009306E-3,-1.966858E-3],"categories":[],"categories_nodes":[],"categories_segments":[],"categories_sizes":[],"default_left":[0,0,0,0,0,0,0,0,0,0,0,0,0,0,0,0,0,0,0,0,0,0,0,0,0,0,0,0,0,0,0,0,0,0,0,0,0,0,0,0,0,0,0,0,0,0,0,0,0,0,0,0,0,0,0,0,0,0,0,0,0,0,0,0,0,0,0,0,0,0,0,0,0,0,0,0,0,0,0,0,0,0,0,0,0],"id":22,"left_children":[1,3,5,7,9,11,13,15,17,19,21,23,25,27,-1,29,-1,-1,31,33,35,-1,37,39,41,43,45,-1,-1,47,49,-1,51,-1,-1,53,55,-1,-1,57,-1,59,61,-1,-1,63,-1,-1,-1,65,-1,-1,-1,-1,-1,-1,-1,-1,-1,-1,67,-1,69,-1,71,-1,73,75,-1,77,-1,-1,-1,79,-1,-1,-1,81,-1,83,-1,-1,-1,-1,-1],"loss_changes":[2.1290924E-1,2.5190078E-2,4.360774E-2,9.851098E-3,1.4088986E-2,1.5955754E-2,1.2398839E-2,3.2526612E-2,2.5241459E-3,3.7854873E-3,2.5432596E-3,8.9213345E-3,2.8487146E-3,1.5979894E-3,0E0,5.5120513E-3,0E0,0E0,6.881881E-4,3.1710508E-5,4.993845E-4,0E0,1.1343802E-3,1.1090157E-3,1.955552E-3,6.4545544E-4,3.346663E-3,0E0,0E0,1.1789098E-3,3.2491237E-3,0E0,1.2153396E-6,0E0,0E0,3.632717E-5,3.1374395E-5,0E0,0E0,1.13380665E-5,0E0,4.4131896E-4,1.067115E-3,0E0,0E0,1.5842244E-3,0E0,0E0,0E0,2.8879568E-3,0E0,0E0,0E0,0E0,0E0,0E0,0E0,0E0,0E0,0E0,7.029937E-5,0E0,7.075872E-4,0E0,7.5618736E-4,0E0,2.4335831E-4,1.10425695E-4,0E0,1.1123959E-3,0E0,0E0,0E0,3.279183E-3,0E0,0E0,0E0,1.6108784E-4,0E0,3.258776E-3,0E0,0E0,0E0,0E0,0E0],"parents":[2147483647,0,0,1,1,2,2,3,3,4,4,5,5,6,6,7,7,8,8,9,9,10,10,11,11,12,12,13,13,15,15,18,18,19,19,20,20,22,22,23,23,24,24,25,25,26,26,29,29,30,30,32,32,35,35,36,36,39,39,41,41,42,42,45,45,49,49,60,60,62,62,64,64,66,66,67,67,69,69,73,73,77,77,79,79],"right_children":[2,4,6,8,10,12,14,16,18,20,22,24,26,28,-1,30,-1,-1,32,34,36,-1,38,40,42,44,46,-1,-1,48,50,-1,52,-1,-1,54,56,-1,-1,58,-1,60,62,-1,-1,64,-1,-1,-1,66,-1,-1,-1,-1,-1,-1,-1,-1,-1,-1,68,-1,70,-1,72,-1,74,76,-1,78,-1,-1,-1,80,-1,-1,-1,82,-1,84,-1,-1,-1,-1,-1],"split_conditions":[1.964E3,3.373E1,2.01E3,2.52E1,2.776E1,2.568E1,2.918E1,2.511E1,2.698E1,3.382E1,2.475E1,2.476E1,3.402E1,2.02E3,1.6685486E-2,2.614E1,-2.0821858E-2,-4.432406E-3,2.524E1,2.481E1,2.654E1,-1.6051292E-3,1.953E3,2.678E1,3.376E1,3.323E1,3.48E1,7.728986E-3,2.472178E-3,1.916E3,1.957E3,-2.029419E-3,1.903E3,9.775162E-5,-4.740397E-4,2.568E1,2.492E1,5.226135E-4,3.7529469E-3,1.969E3,-4.9978257E-3,2.689E1,1.985E3,1.6832352E-4,3.1319044E-3,2.577E1,1.7527262E-3,7.453919E-4,-2.6565553E-3,2.443E1,-6.887436E-4,1.2865067E-4,5.1784515E-4,-5.629762E-3,-1.5713692E-3,-2.8411865E-3,-7.5807574E-4,-2.7627946E-4,-1.1842728E-3,-9.0942386E-4,3.365E1,9.0293883E-4,3.406E1,9.699392E-3,2.588E1,-3.0290603E-3,2.708E1,1.977E3,1.8882753E-5,3.391E1,4.2320252E-3,7.9698564E-4,4.916668E-3,2.666E1,-1.0881043E-2,2.1254223E-4,1.2563706E-3,3.386E1,-6.591797E-4,2.497E1,-3.255844E-4,2.9196262E-3,9.515762E-4,-8.009306E-3,-1.966858E-3],"split_indices":[0,3,0,1,2,1,2,1,2,3,1,1,3,0,0,2,0,0,1,1,2,0,0,2,3,3,3,0,0,0,0,0,0,0,0,1,1,0,0,0,0,2,0,0,0,1,0,0,0,1,0,0,0,0,0,0,0,0,0,0,3,0,3,0,1,0,2,0,0,3,0,0,0,2,0,0,0,3,0,1,0,0,0,0,0],"split_type":[0,0,0,0,0,0,0,0,0,0,0,0,0,0,0,0,0,0,0,0,0,0,0,0,0,0,0,0,0,0,0,0,0,0,0,0,0,0,0,0,0,0,0,0,0,0,0,0,0,0,0,0,0,0,0,0,0,0,0,0,0,0,0,0,0,0,0,0,0,0,0,0,0,0,0,0,0,0,0,0,0,0,0,0,0],"sum_hessian":[9.6E1,4.8E1,4.8E1,2.8E1,2E1,3.8E1,1E1,1.9E1,9E0,1.4E1,6E0,2.4E1,1.4E1,8E0,2E0,1.8E1,1E0,6E0,3E0,3E0,1.1E1,1E0,5E0,3E0,2.1E1,5E0,9E0,6E0,2E0,3E0,1.5E1,1E0,2E0,1E0,2E0,6E0,5E0,2E0,3E0,2E0,1E0,7E0,1.4E1,1E0,4E0,7E0,2E0,1E0,2E0,1.4E1,1E0,1E0,1E0,5E0,1E0,4E0,1E0,1E0,1E0,1E0,6E0,4E0,1E1,3E0,4E0,3E0,1.1E1,5E0,1E0,6E0,4E0,1E0,3E0,8E0,3E0,2E0,3E0,5E0,1E0,7E0,1E0,3E0,2E0,5E0,2E0],"tree_param":{"num_deleted":"0","num_feature":"4","num_nodes":"85","size_leaf_vector":"1"}},{"base_weights":[-1.1732357E-3,-4.4251382E-2,4.1928858E-2,-9.063128E-2,-3.299113E-2,2.6242085E-2,9.373388E-2,-3.8715634E-2,-1.8155735E-2,-3.9832752E-2,1.35571165E-2,1.0846482E-2,5.015195E-2,6.265322E-2,1.5573121E-2,-4.6808245E-3,4.920006E-4,-4.3102045E-2,3.7296296E-3,4.2696E-3,2.1421432E-3,-3.0677319E-2,1.790324E-2,2.4544397E-2,6.050129E-2,7.066536E-3,2.307383E-3,-3.4121376E-2,-5.2801512E-2,5.784989E-4,1.836141E-4,-9.250005E-3,-4.747963E-3,4.4395924E-3,2.3890305E-2,1.5993118E-4,2.8813554E-3,6.94921E-2,1.6358694E-3,-4.9591702E-3,-2.0786433E-2,-8.451334E-3,-4.1421745E-2,-2.6245118E-4,-1.1250497E-3,-8.639336E-4,7.5422013E-3,8.307648E-4,2.8801484E-2,8.971977E-3,3.9411545E-2,-3.3657074E-3,-2.8155008E-2,-7.2021486E-4,-4.36732E-2,8.739471E-3,1.7929078E-5,1.7449243E-2,3.893433E-3,7.5712206E-4,4.5478824E-3,7.857005E-4,-1.3466518E-3,-5.1490148E-3,-1.4132091E-2,-2.7730227E-2,-6.0447315E-3,1.9842785E-4,1.1620999E-3,2.2444725E-2,-6.261826E-4,-3.6334991E-3,-2.109766E-3,-1.5325546E-4,-3.1253815E-2,2.700615E-3,8.8812516E-4,9.288788E-5,-5.463918E-4,-3.4552575E-3,-5.730629E-4],"categories":[],"categories_nodes":[],"categories_segments":[],"categories_sizes":[],"default_left":[0,0,0,0,0,0,0,0,0,0,0,0,0,0,0,0,0,0,0,0,0,0,0,0,0,0,0,0,0,0,0,0,0,0,0,0,0,0,0,0,0,0,0,0,0,0,0,0,0,0,0,0,0,0,0,0,0,0,0,0,0,0,0,0,0,0,0,0,0,0,0,0,0,0,0,0,0,0,0,0,0],"id":23,"left_children":[1,3,5,7,9,11,13,15,-1,17,19,21,23,25,-1,-1,-1,27,-1,29,-1,31,33,35,37,-1,-1,39,41,-1,-1,43,-1,45,47,-1,-1,49,-1,-1,51,-1,53,-1,-1,-1,55,-1,57,-1,59,61,63,-1,65,67,-1,69,-1,-1,-1,-1,-1,-1,71,73,-1,-1,-1,75,-1,77,-1,-1,79,-1,-1,-1,-1,-1,-1],"loss_changes":[1.8196097E-1,2.2600189E-2,3.7360243E-2,3.5455257E-2,1.3597101E-2,1.381219E-2,1.143904E-2,2.7021803E-3,0E0,1.0685217E-2,3.467789E-4,7.87481E-3,2.490349E-3,1.2235157E-3,0E0,0E0,0E0,1.2471154E-3,0E0,4.1284948E-6,0E0,1.0009268E-3,1.6673063E-3,5.416551E-4,2.8319769E-3,0E0,0E0,3.3013802E-3,1.9124113E-3,0E0,0E0,1.0235672E-5,0E0,3.8979005E-4,9.086663E-4,0E0,0E0,1.331687E-3,0E0,0E0,1.5739957E-3,0E0,6.870292E-4,0E0,0E0,0E0,6.0140825E-5,0E0,5.859602E-4,0E0,6.2158937E-4,6.7259884E-4,2.2173775E-3,0E0,1.5329327E-3,9.373235E-5,0E0,9.696826E-4,0E0,0E0,0E0,0E0,0E0,0E0,4.352423E-4,6.9058035E-4,0E0,0E0,0E0,1.3136421E-4,0E0,3.8479564E-5,0E0,0E0,3.9135618E-4,0E0,0E0,0E0,0E0,0E0,0E0],"parents":[2147483647,0,0,1,1,2,2,3,3,4,4,5,5,6,6,7,7,9,9,10,10,11,11,12,12,13,13,17,17,19,19,21,21,22,22,23,23,24,24,27,27,28,28,31,31,33,33,34,34,37,37,40,40,42,42,46,46,48,48,50,50,51,51,52,52,54,54,55,55,57,57,64,64,65,65,69,69,71,71,74,74],"right_children":[2,4,6,8,10,12,14,16,-1,18,20,22,24,26,-1,-1,-1,28,-1,30,-1,32,34,36,38,-1,-1,40,42,-1,-1,44,-1,46,48,-1,-1,50,-1,-1,52,-1,54,-1,-1,-1,56,-1,58,-1,60,62,64,-1,66,68,-1,70,-1,-1,-1,-1,-1,-1,72,74,-1,-1,-1,76,-1,78,-1,-1,80,-1,-1,-1,-1,-1,-1],"split_conditions":[1.964E3,3.255E1,2.01E3,3.25E1,2.793E1,2.568E1,2.918E1,1.947E3,-1.8155735E-2,2.619E1,1.953E3,2.476E1,3.402E1,2.02E3,1.5573121E-2,-4.6808245E-3,4.920006E-4,2.503E1,3.7296296E-3,2.566E1,2.1421432E-3,2.678E1,3.376E1,3.323E1,3.48E1,7.066536E-3,2.307383E-3,2.474E1,2.506E1,5.784989E-4,1.836141E-4,1.969E3,-4.747963E-3,2.689E1,1.985E3,1.5993118E-4,2.8813554E-3,2.577E1,1.6358694E-3,-4.9591702E-3,3.325E1,-8.451334E-3,2.51E1,-2.6245118E-4,-1.1250497E-3,-8.639336E-4,3.365E1,8.307648E-4,3.406E1,8.971977E-3,2.588E1,1.921E3,2.655E1,-7.2021486E-4,1.94E3,1.977E3,1.7929078E-5,3.391E1,3.893433E-3,7.5712206E-4,4.5478824E-3,7.857005E-4,-1.3466518E-3,-5.1490148E-3,3.381E1,2.599E1,-6.0447315E-3,1.9842785E-4,1.1620999E-3,3.386E1,-6.261826E-4,2.481E1,-2.109766E-3,-1.5325546E-4,1.939E3,2.700615E-3,8.8812516E-4,9.288788E-5,-5.463918E-4,-3.4552575E-3,-5.730629E-4],"split_indices":[0,3,0,3,2,1,2,0,0,1,0,1,3,0,0,0,0,1,0,1,0,2,3,3,3,0,0,1,1,0,0,0,0,2,0,0,0,1,0,0,3,0,1,0,0,0,3,0,3,0,1,0,2,0,0,0,0,3,0,0,0,0,0,0,3,2,0,0,0,3,0,1,0,0,0,0,0,0,0,0,0],"split_type":[0,0,0,0,0,0,0,0,0,0,0,0,0,0,0,0,0,0,0,0,0,0,0,0,0,0,0,0,0,0,0,0,0,0,0,0,0,0,0,0,0,0,0,0,0,0,0,0,0,0,0,0,0,0,0,0,0,0,0,0,0,0,0,0,0,0,0,0,0,0,0,0,0,0,0,0,0,0,0,0,0],"sum_hessian":[9.6E1,4.8E1,4.8E1,8E0,4E1,3.8E1,1E1,6E0,2E0,3.5E1,5E0,2.4E1,1.4E1,8E0,2E0,5E0,1E0,3.4E1,1E0,3E0,2E0,3E0,2.1E1,5E0,9E0,6E0,2E0,2E1,1.4E1,1E0,2E0,2E0,1E0,7E0,1.4E1,1E0,4E0,7E0,2E0,8E0,1.2E1,2E0,1.2E1,1E0,1E0,1E0,6E0,4E0,1E1,3E0,4E0,4E0,8E0,1E0,1.1E1,5E0,1E0,6E0,4E0,1E0,3E0,2E0,2E0,2E0,6E0,7E0,4E0,2E0,3E0,5E0,1E0,3E0,3E0,1E0,6E0,3E0,2E0,1E0,2E0,5E0,1E0],"tree_param":{"num_deleted":"0","num_feature":"4","num_nodes":"81","size_leaf_vector":"1"}},{"base_weights":[-1.0804245E-3,-4.0812746E-2,3.8673945E-2,-8.405092E-2,-3.0326005E-2,3.1303447E-2,1.4125379E-2,-3.5442624E-2,-1.694533E-2,-3.665225E-2,1.2685776E-2,-2.9143333E-2,3.6087167E-2,-4.2907717E-3,4.673958E-4,-3.972413E-2,3.5431862E-3,1.7743111E-3,1.7140707E-4,-8.787155E-3,-4.5105936E-3,1.9502822E-2,4.9094837E-2,-3.1339463E-2,-4.8814394E-2,-2.4929046E-4,-1.0687829E-3,1.256454E-2,3.4754437E-3,3.649342E-2,6.604237E-2,-4.8539024E-3,-2.1223703E-2,-7.887904E-3,-3.8121443E-2,-1.2698174E-3,1.5854763E-2,7.2758994E-4,4.0147644E-2,7.286596E-2,5.726814E-4,-3.1414032E-3,-2.7513504E-2,-6.84166E-4,-4.0157955E-2,-4.4587455E-3,4.1484833E-4,1.0606766E-2,2.5011063E-2,5.7525636E-4,4.2350914E-2,7.7794488E-3,1.9183159E-3,7.33312E-4,-1.2568792E-3,-4.805692E-3,-1.7608643E-2,-2.5479555E-2,-5.56118E-3,1.5192032E-4,-8.2073215E-4,1.8520355E-4,1.2563944E-2,3.089396E-3,3.681183E-4,5.143002E-3,2.722168E-2,-3.3841133E-3,-2.415689E-3,-1.4562607E-4,-2.8703418E-2,1.5953064E-3,7.339859E-3,-5.94902E-4,3.3741634E-2,8.8214874E-5,-5.10025E-4,-3.1672479E-3,-5.444527E-4,1.7401377E-4,1.0492961E-3,3.9494326E-3,2.48909E-4],"categories":[],"categories_nodes":[],"categories_segments":[],"categories_sizes":[],"default_left":[0,0,0,0,0,0,0,0,0,0,0,0,0,0,0,0,0,0,0,0,0,0,0,0,0,0,0,0,0,0,0,0,0,0,0,0,0,0,0,0,0,0,0,0,0,0,0,0,0,0,0,0,0,0,0,0,0,0,0,0,0,0,0,0,0,0,0,0,0,0,0,0,0,0,0,0,0,0,0,0,0,0,0],"id":24,"left_children":[1,3,5,7,9,11,-1,13,-1,15,17,19,21,-1,-1,23,-1,-1,-1,25,-1,27,29,31,33,-1,-1,35,-1,37,39,-1,41,-1,43,45,47,-1,49,51,-1,53,55,-1,57,59,-1,61,63,-1,65,-1,-1,-1,-1,-1,67,69,-1,-1,-1,-1,71,-1,-1,-1,73,75,-1,-1,77,-1,79,-1,81,-1,-1,-1,-1,-1,-1,-1,-1],"loss_changes":[1.5479313E-1,1.9669019E-2,3.2625444E-2,3.13555E-2,1.1621185E-2,1.4642239E-2,0E0,2.296866E-3,0E0,9.379126E-3,3.025126E-4,9.0339757E-4,8.534361E-3,0E0,0E0,1.1378415E-3,0E0,0E0,0E0,9.246185E-6,0E0,1.7855465E-3,2.7153976E-3,2.6235413E-3,1.815211E-3,0E0,0E0,7.4842246E-4,0E0,1.4161672E-3,3.2868274E-3,0E0,1.6195797E-3,0E0,5.5337325E-4,8.761131E-5,3.5939226E-4,0E0,8.173175E-4,6.24273E-4,0E0,5.859055E-4,1.39206E-3,0E0,1.3050903E-3,7.969496E-5,0E0,1.480768E-4,3.881997E-4,0E0,3.8566813E-4,0E0,0E0,0E0,0E0,0E0,7.5656176E-4,5.7778275E-4,0E0,0E0,0E0,0E0,2.4547102E-5,0E0,0E0,0E0,1.7146296E-3,3.3785138E-5,0E0,0E0,3.1095743E-4,0E0,7.002326E-5,0E0,9.804126E-4,0E0,0E0,0E0,0E0,0E0,0E0,0E0,0E0],"parents":[2147483647,0,0,1,1,2,2,3,3,4,4,5,5,7,7,9,9,10,10,11,11,12,12,15,15,19,19,21,21,22,22,23,23,24,24,27,27,29,29,30,30,32,32,34,34,35,35,36,36,38,38,39,39,41,41,42,42,44,44,45,45,47,47,48,48,50,50,56,56,57,57,62,62,66,66,67,67,70,70,72,72,74,74],"right_children":[2,4,6,8,10,12,-1,14,-1,16,18,20,22,-1,-1,24,-1,-1,-1,26,-1,28,30,32,34,-1,-1,36,-1,38,40,-1,42,-1,44,46,48,-1,50,52,-1,54,56,-1,58,60,-1,62,64,-1,66,-1,-1,-1,-1,-1,68,70,-1,-1,-1,-1,72,-1,-1,-1,74,76,-1,-1,78,-1,80,-1,82,-1,-1,-1,-1,-1,-1,-1,-1],"split_conditions":[1.964E3,3.255E1,3.532E1,3.25E1,2.793E1,2.476E1,1.4125379E-2,1.947E3,-1.694533E-2,2.619E1,2.566E1,2.678E1,3.402E1,-4.2907717E-3,4.673958E-4,2.503E1,3.5431862E-3,1.7743111E-3,1.7140707E-4,1.969E3,-4.5105936E-3,1.998E3,2.817E1,2.47E1,2.506E1,-2.4929046E-4,-1.0687829E-3,3.323E1,3.4754437E-3,1.972E3,3.504E1,-4.8539024E-3,3.325E1,-7.887904E-3,2.51E1,1.984E3,2.552E1,7.2758994E-4,2.493E1,2.02E3,5.726814E-4,1.921E3,2.655E1,-6.84166E-4,1.94E3,1.983E3,4.1484833E-4,1.977E3,1.994E3,5.7525636E-4,2.789E1,7.7794488E-3,1.9183159E-3,7.33312E-4,-1.2568792E-3,-4.805692E-3,3.381E1,2.599E1,-5.56118E-3,1.5192032E-4,-8.2073215E-4,1.8520355E-4,2.761E1,3.089396E-3,3.681183E-4,5.143002E-3,2.795E1,2.481E1,-2.415689E-3,-1.4562607E-4,1.939E3,1.5953064E-3,2.788E1,-5.94902E-4,2.013E3,8.8214874E-5,-5.10025E-4,-3.1672479E-3,-5.444527E-4,1.7401377E-4,1.0492961E-3,3.9494326E-3,2.48909E-4],"split_indices":[0,3,3,3,2,1,0,0,0,1,1,2,3,0,0,1,0,0,0,0,0,0,2,1,1,0,0,3,0,0,3,0,3,0,1,0,1,0,1,0,0,0,2,0,0,0,0,0,0,0,2,0,0,0,0,0,3,2,0,0,0,0,2,0,0,0,2,1,0,0,0,0,2,0,0,0,0,0,0,0,0,0,0],"split_type":[0,0,0,0,0,0,0,0,0,0,0,0,0,0,0,0,0,0,0,0,0,0,0,0,0,0,0,0,0,0,0,0,0,0,0,0,0,0,0,0,0,0,0,0,0,0,0,0,0,0,0,0,0,0,0,0,0,0,0,0,0,0,0,0,0,0,0,0,0,0,0,0,0,0,0,0,0,0,0,0,0,0,0],"sum_hessian":[9.6E1,4.8E1,4.8E1,8E0,4E1,4.6E1,2E0,6E0,2E0,3.5E1,5E0,3E0,4.3E1,5E0,1E0,3.4E1,1E0,3E0,2E0,2E0,1E0,2E1,2.3E1,2E1,1.4E1,1E0,1E0,1.5E1,5E0,1.5E1,8E0,6E0,1.4E1,2E0,1.2E1,3E0,1.2E1,2E0,1.3E1,7E0,1E0,4E0,1E1,1E0,1.1E1,2E0,1E0,9E0,3E0,1E0,1.2E1,6E0,1E0,2E0,2E0,2E0,8E0,7E0,4E0,1E0,1E0,2E0,7E0,2E0,1E0,6E0,6E0,3E0,5E0,1E0,6E0,3E0,4E0,1E0,5E0,1E0,2E0,5E0,1E0,2E0,2E0,4E0,1E0],"tree_param":{"num_deleted":"0","num_feature":"4","num_nodes":"83","size_leaf_vector":"1"}},{"base_weights":[-1.0545475E-3,-3.767578E-2,3.5588205E-2,-7.795313E-2,-2.7915489E-2,2.9794892E-2,1.5683366E-2,-3.2444E-2,-1.5815672E-2,-3.374958E-2,1.1741638E-2,-2.768612E-2,3.4242205E-2,-3.9331436E-2,4.4403077E-4,-3.663728E-2,3.3659935E-3,3.5042763E-3,1.8810908E-3,-8.347829E-3,-4.2850496E-3,2.3608854E-2,5.3934988E-2,-1.1666298E-3,-4.2531206E-3,-2.8825125E-2,-4.513181E-2,4.6091081E-4,1.5996298E-4,-2.3679734E-4,-1.0153771E-3,1.1570104E-2,3.2842524E-2,1.18255615E-4,5.761855E-2,-4.0760994E-2,-1.6476473E-2,-7.3619843E-3,-3.5085972E-2,-1.2068748E-3,1.4864922E-2,6.791433E-4,3.586324E-2,5.9753712E-2,1.4930725E-3,-9.803295E-3,-5.2628107E-2,1.1091232E-3,-2.2461573E-3,-3.9494134E-2,-1.5294076E-3,-4.2362213E-3,3.9405824E-4,2.4480184E-3,1.049385E-2,1.1231105E-3,3.878887E-2,4.0076666E-2,7.089452E-2,-1.3573647E-3,-4.0219626E-3,-5.965233E-2,-5.2413944E-4,3.189087E-3,-2.565384E-4,-2.2597313E-2,-5.187149E-3,1.4429093E-4,-7.7972416E-4,5.655561E-3,1.6337395E-2,4.4456907E-3,2.0828629E-2,4.494254E-3,5.440712E-4,7.663568E-3,1.8223763E-3,6.321907E-4,-1.2354851E-3,-1.5172005E-3,-6.5513994E-3,3.9453508E-4,8.3827974E-5,-1.3837815E-4,-2.6563264E-3,1.9235611E-3,7.9736713E-4,1.9111633E-3,4.0073396E-4,2.485323E-3,2.3651123E-4,2.5087994E-4,8.392334E-6],"categories":[],"categories_nodes":[],"categories_segments":[],"categories_sizes":[],"default_left":[0,0,0,0,0,0,0,0,0,0,0,0,0,0,0,0,0,0,0,0,0,0,0,0,0,0,0,0,0,0,0,0,0,0,0,0,0,0,0,0,0,0,0,0,0,0,0,0,0,0,0,0,0,0,0,0,0,0,0,0,0,0,0,0,0,0,0,0,0,0,0,0,0,0,0,0,0,0,0,0,0,0,0,0,0,0,0,0,0,0,0,0,0],"id":25,"left_children":[1,3,5,7,9,11,-1,13,-1,15,17,19,21,23,-1,25,-1,27,-1,29,-1,31,33,-1,-1,35,37,-1,-1,-1,-1,39,41,-1,43,45,47,-1,49,51,53,-1,55,57,-1,59,61,63,-1,65,-1,67,-1,-1,69,-1,71,73,75,-1,77,79,-1,81,-1,83,-1,-1,-1,85,87,-1,